
\data\
ngram 1=4935
ngram 2=23747
ngram 3=18395

\1-grams:
-4.329257	'ORI	-0.1266628
-1.428822	</s>
-99	<s>	-0.920429
-0.9580239	<unk>	-0.685212
-4.329257	ABA	-0.1266628
-4.329257	ABAIJA	-0.1266628
-4.329257	ABAIJIA	-0.1266628
-4.150996	ABAIN	-0.1964486
-4.329257	ABAJA	-0.1266628
-4.329257	ABAKALAME	-0.1266628
-4.329257	ABALA	-0.1266628
-4.329257	ABALABALAKE	-0.1266629
-4.150996	ABALAKE	-0.1266628
-4.150996	ABALALA	-0.1266628
-4.329257	ABALARI	-0.1266628
-4.150996	ABE	-0.1266628
-4.329257	ABELE	-0.1266628
-4.329257	ABI	-0.1266628
-4.329257	ABIESO	-0.1266628
-4.329257	ABILINI	-0.1266628
-4.329257	ABIUD	-0.1266628
-4.329257	ABTATA	-0.1266628
-3.346976	ABU	-0.1389219
-4.329257	ABUID	-0.1266628
-4.329257	ACHE	-0.1266628
-4.329257	ACHIEME	-0.1266628
-3.947228	ACHO	-0.1964486
-4.329257	ADALA	-0.1266628
-4.329257	ADAM	-0.1266628
-4.329257	ADI	-0.1266628
-4.477014	ADIN
-4.477014	ADIRI
-4.329257	ADMIN	-0.1266628
-4.477014	AFA
-4.329257	AFAZAD	-0.1266628
-3.947228	AGAGA	-0.1671756
-3.490162	AGBA	-0.4156893
-4.477014	AGBAM
-4.329257	AGBAMA	-0.1266629
-4.329257	AGBAMEBO	-0.1266628
-3.490162	AGBAMIE	-0.1947082
-3.490162	AGBAMIEAPU	-0.5839586
-3.809582	AGBAMIEBO	-0.2331972
-4.329257	AGBAMIEBOBE	-0.1266629
-4.329257	AGIGI	-0.1266628
-4.329257	AGOGO	-0.1266628
-4.329257	AGONO	-0.1266628
-4.329257	AIKANIKA	-0.1266628
-4.477014	AIKOWARI
-4.329257	AINON	-0.1266628
-3.550734	AIZAYA	-0.4092885
-4.329257	AIZIK	-0.1266628
-4.329257	AJARI	-0.1266628
-4.477014	AJIN
-3.272438	AKA	-0.3123265
-4.329257	AKABU	-0.1266628
-4.150996	AKAFARI	-0.1266628
-4.150996	AKAKARABA	-0.1964486
-4.329257	AKAKARABAMA	-0.1266628
-3.809582	AKALU	-0.1552098
-4.477014	AKAMA
-4.329257	AKAMAS	-0.1266628
-4.329257	AKANIBO	-0.1266628
-4.329257	AKASIKI	-0.1266628
-4.329257	AKIDI	-0.1266628
-4.329257	AKILOS	-0.1266628
-4.150996	AKIM	-0.2360536
-4.329257	AKISI	-0.1266628
-4.329257	AKLU	-0.1266628
-4.477014	AKOM
-3.389665	AKPA	-0.3335314
-3.705222	AKPAKA	-0.2607873
-4.329257	AKPAKADIKI	-0.1266628
-4.329257	AKPAKAMA	-0.1266628
-4.329257	AKPAMA	-0.1266628
-3.621144	AKU	-0.1938405
-4.150996	AKWA	-0.1266628
-3.947228	ALA	-0.1266628
-4.150996	ALABASTA	-0.1266628
-4.329257	ALABO	-0.1266628
-4.477014	ALAFA
-4.477014	ALAFAM
-4.329257	ALAI	-0.1266628
-4.329257	ALAKON	-0.1266628
-3.039519	ALALI	-0.3438137
-4.477014	ALAP
-4.329257	ALAPELEKA	-0.1266628
-4.329257	ALAPU	-0.1266628
-4.329257	ALATI	-0.1266628
-4.329257	ALEKZANDA	-0.1266628
-4.150996	ALFIOS	-0.2360536
-4.477014	ALI
-4.329257	ALIA	-0.1266628
-4.329257	ALILI	-0.1266628
-4.329257	ALNANYANAKIRI	-0.1266628
-4.329257	ALOIS	-0.1266628
-2.532491	AMA	-0.5535309
-4.477014	AMAANYANA
-4.329257	AMAANYANABO	-0.1266628
-3.705222	AMABARA	-0.3070986
-4.329257	AMABELEMABO	-0.1266628
-4.329257	AMABIE	-0.1266628
-4.329257	AMABOME	-0.1266628
-4.150996	AMAFIEMA	-0.1964486
-4.150996	AMAFIEMABIA	-0.1266628
-4.329257	AMAFIEMAYE	-0.1266628
-4.150996	AMAIGBIKI	-0.1964486
-4.329257	AMAIGBIKIOCHAPU	-0.1266628
-3.947228	AMAIGBIKIOCHO	-0.2733453
-4.150996	AMAIGBIKIOCHOAPU	-0.1964486
-4.329257	AMAIGBIKOCHOBO	-0.1266628
-4.477014	AMAM
-3.947228	AMAMA	-0.1964486
-4.150996	AMANANYANAKIRI	-0.2360536
-4.150996	AMANAYANAKIRI	-0.1266628
-4.477014	AMANYAMA
-4.329257	AMANYAN	-0.1266628
-4.150996	AMANYANA	-0.1266628
-2.983237	AMANYANABO	-0.3974341
-4.150996	AMANYANABOCHU	-0.1266628
-4.329257	AMANYANAKI	-0.1266628
-4.329257	AMANYANAKINI	-0.1266628
-4.329257	AMANYANAKIRA	-0.1266628
-3.104197	AMANYANAKIRI	-0.4066573
-4.329257	AMANYANAKIRIMI	-0.1266628
-4.329257	AMANYANAKIRJ	-0.1266628
-4.329257	AMANYANAO	-0.1266628
-3.947228	AMANYANAPU	-0.1779231
-4.329257	AMANYANBO	-0.1266628
-4.329257	AMANYANNAKIRI	-0.1266628
-4.329257	AMAOCHO	-0.1266629
-4.329257	AMAOCHOAPU	-0.1266628
-4.329257	AMAOCHOBIA	-0.1266628
-3.947228	AMAOCHOBO	-0.1266629
-3.621144	AMAOGBO	-0.1266628
-4.329257	AMAOWU	-0.1266628
-4.150996	AMAPU	-0.1266628
-4.150996	AMATIBI	-0.1266628
-4.329257	AMATIBIDAPU	-0.1266628
-4.329257	AMAYANAKIRI	-0.1266628
-4.329257	AMBUA	-0.1266628
-4.329257	AMBURA	-0.1266628
-4.329257	AMBURU	-0.1266628
-4.329257	AMESO	-0.1266628
-4.150996	AMGBA	-0.2360536
-4.150996	AMGBARA	-0.1964486
-4.329257	AMI	-0.1266628
-4.150996	AMINADABO	-0.2360536
-4.329257	AMKAMKA	-0.1266628
-4.329257	AMOCHOAPU	-0.1266628
-4.329257	AMOKUMA	-0.1266628
-4.150996	AMON	-0.2360536
-4.329257	AMONYANABO	-0.1266628
-3.490162	ANA	-0.2415757
-4.329257	ANAA	-0.1266628
-4.329257	ANABU	-0.1266629
-3.809582	ANAGA	-0.1266628
-4.329257	ANAINYO	-0.1266628
-3.104197	ANANA	-0.399978
-3.947228	ANANADIKIDIKIAPU	-0.2733453
-3.809582	ANANADIKIDIKIBO	-0.2317761
-4.329257	ANANAKORUAPU	-0.1266628
-4.329257	ANANAMA	-0.1266628
-4.329257	ANANAOGBO	-0.1266628
-4.329257	ANANYANAKIRI	-0.1266628
-4.329257	ANAS	-0.1266628
-4.477014	ANAT
-3.490162	ANATIBI	-0.1601555
-3.550734	ANDRU	-0.5328061
-4.329257	ANDU	-0.1266628
-4.329257	ANESO	-0.1266628
-2.77702	ANGA	-0.3236548
-4.150996	ANGABIA	-0.2360535
-4.477014	ANGAKA
-3.705222	ANGAME	-0.2878008
-4.150996	ANGAPU	-0.1964486
-4.329257	ANGARAFIAPU	-0.1266628
-4.477014	ANGARAFIBO
-4.150996	ANGARANI	-0.1266628
-4.477014	ANGARANIBO
-4.329257	ANGASIKI	-0.1266629
-4.477014	ANGAYE
-4.150996	ANGINA	-0.1266628
-1.952885	ANI	-0.3578857
-2.835511	ANIA	-0.4105004
-4.329257	ANIABIBI	-0.1266628
-4.329257	ANIABU	-0.1266628
-4.329257	ANIAMGA	-0.1266628
-3.060026	ANIANGA	-0.3348297
-4.329257	ANIANTIBI	-0.1266628
-4.329257	ANIATI	-0.1266628
-4.329257	ANIATIB	-0.1266629
-2.272896	ANIATIBI	-0.4239126
-4.329257	ANIATIBII	-0.1266628
-4.329257	ANIATIBIT	-0.1266628
-4.329257	ANIATIOI	-0.1266628
-3.490162	ANIBE	-0.2205562
-4.329257	ANIBEKULUMA	-0.1266628
-3.809582	ANIBO	-0.1266628
-4.329257	ANIBU	-0.1266628
-4.329257	ANIE	-0.1266628
-4.329257	ANIEBE	-0.1266628
-4.329257	ANIEBESO	-0.1266628
-4.329257	ANIERCCHI	-0.1266628
-4.329257	ANIERCHI	-0.1266628
-4.150996	ANIERECHI	-0.1446107
-3.437013	ANIESO	-0.3099832
-4.329257	ANIESP	-0.1266628
-4.329257	ANIGBORI	-0.1266628
-3.705222	ANIGOSE	-0.1487019
-3.947228	ANII	-0.1266628
-4.329257	ANIIBI	-0.1266628
-4.150996	ANIKA	-0.1964486
-4.329257	ANIKANIA	-0.1266628
-4.329257	ANIKANIBA	-0.1266628
-2.637768	ANIKANIKA	-0.2479084
-4.329257	ANIKANIKU	-0.1266628
-4.150996	ANIKANKA	-0.1266628
-4.329257	ANIKARNKA	-0.1266628
-3.809582	ANIKE	-0.1671755
-3.809582	ANIKIRIKIRI	-0.1760471
-4.329257	ANIKIRIRKIRI	-0.1266628
-4.329257	ANIKSIKI	-0.1266628
-4.329257	ANIKUMA	-0.1266628
-4.329257	ANIMAKARAKA	-0.1266628
-4.329257	ANIMGBA	-0.1266628
-4.329257	ANIMISIKIMA	-0.1266628
-4.150996	ANIN	-0.1266628
-3.490162	ANINAKARAKA	-0.1907733
-4.477014	ANINY
-2.965988	ANINYO	-0.3481705
-3.30811	ANIO	-0.2190586
-3.272438	ANIOKUMA	-0.2300499
-4.329257	ANIS	-0.1266628
-4.329257	ANISE	-0.1266628
-4.329257	ANISI	-0.1266628
-4.329257	ANISII	-0.1266628
-4.329257	ANISIK	-0.1266629
-2.622167	ANISIKI	-0.2975627
-4.329257	ANISIYKI	-0.1266628
-3.947228	ANISKI	-0.1266628
-4.329257	ANISKIK	-0.1266628
-3.947228	ANISO	-0.1266628
-4.477014	ANITEIN
-4.150996	ANITIBI	-0.1266628
-4.329257	ANIYO	-0.1266628
-4.329257	ANJATIBI	-0.1266628
-4.329257	ANJESO	-0.1266628
-4.329257	ANKANIKA	-0.1266628
-4.477014	ANKOROAP
-4.477014	ANKOROM
-4.329257	ANNA	-0.1266628
-4.329257	ANO	-0.1266628
-4.477014	ANTEIN
-4.329257	ANU	-0.1266628
-4.329257	ANUSIKI	-0.1266628
-4.150996	ANY	-0.1266628
-4.329257	ANYAMBURAMA	-0.1266629
-4.329257	ANYAME	-0.1266628
-4.329257	ANYI	-0.1266628
-3.947228	ANYIMA	-0.1964486
-4.329257	ANYIMABIA	-0.1266628
-4.329257	ANYIMAKA	-0.1266628
-4.329257	ANYIN	-0.1266628
-4.329257	ANYINMAME	-0.1266628
-4.329257	ANYO	-0.1266628
-4.329257	APA	-0.1266628
-4.329257	APIRI	-0.1266628
-2.203352	APU	-0.672527
-3.947228	APUA	-0.1266628
-4.329257	APUKA	-0.1266628
-4.329257	APUMAMGBA	-0.1266628
-4.150996	APURA	-0.1266628
-4.150996	ARA	-0.1266628
-4.477014	ARACH
-4.477014	ARAMA
-4.477014	ARAMAYE
-4.477014	ARANA
-4.477014	ARASINSAM
-4.477014	ARAT
-4.329257	ARE	-0.1266628
-4.329257	AREU	-0.1266628
-2.312345	ARI	-0.3009164
-2.983237	ARIA	-0.2700983
-4.477014	ARIAPU
-4.329257	ARIBE	-0.1266628
-4.329257	ARID	-0.1266628
-4.329257	ARIKA	-0.1266628
-3.947228	ARIMATIA	-0.1964486
-3.947228	ARIMGBA	-0.1671755
-4.329257	ARIS	-0.1266628
-4.150996	ARIYE	-0.1266628
-4.329257	ARNANYANABO	-0.1266628
-2.965988	ARU	-0.5171651
-4.150996	ARUAPU	-0.2360536
-4.329257	ASA	-0.1266628
-4.150996	ASE	-0.2360536
-4.329257	ASEMENI	-0.1266628
-3.705222	ASEMENIBO	-0.1938405
-4.329257	ASHA	-0.1266628
-4.477014	ASI
-4.477014	ASO
-3.550734	ASUN	-0.2326282
-4.329257	ATALI	-0.1266628
-4.329257	ATALIOGBO	-0.1266628
-2.79948	ATELI	-0.5846238
-4.329257	ATELIDIEAPU	-0.1266629
-4.329257	ATELIOGBO	-0.1266628
-4.477014	ATESI
-4.150996	ATLI	-0.1266628
-4.329257	AUN	-0.1266628
-4.150996	AWA	-0.1266628
-2.965988	AWO	-0.3400736
-4.477014	AWOMA
-4.329257	AWOMEENI	-0.1266628
-4.150996	AWOMEN	-0.2360536
-3.272438	AWOMENI	-0.3712339
-4.150996	AWOMENIMA	-0.1266628
-4.329257	AWOSE	-0.1266628
-3.705222	AWUWU	-0.1601555
-4.329257	AYA	-0.1266628
-3.550734	AYAMBURAMA	-0.3547476
-2.670759	AYE	-0.5700244
-4.150996	AZO	-0.1266628
-4.477014	BAA
-4.329257	BAABIA	-0.1266628
-4.329257	BAASAM	-0.1266629
-4.329257	BABAI	-0.1266628
-4.329257	BABAYE	-0.1266628
-3.809582	BABIA	-0.1702192
-4.150996	BABILON	-0.2360535
-4.329257	BABILOR	-0.1266628
-4.329257	BAFUKA	-0.1266628
-4.477014	BAI
-3.104197	BAKA	-0.336271
-4.329257	BAKAKA	-0.1266628
-3.30811	BAKAMA	-0.1487019
-3.809582	BAKAME	-0.2086195
-3.947228	BAKATEIN	-0.1266628
-4.329257	BAKATEINBIA	-0.1266628
-4.150996	BAKATEINYE	-0.1266628
-4.150996	BAKAYE	-0.1964486
-4.329257	BAKIBA	-0.1266629
-3.809582	BAKU	-0.1266628
-3.947228	BAKUBA	-0.1964486
-4.150996	BAKUBABIA	-0.1266628
-3.947228	BAKUBAME	-0.1671756
-4.329257	BAKUBASA	-0.1266629
-4.329257	BAKUME	-0.1266628
-4.329257	BALA	-0.1266628
-4.329257	BALABALA	-0.1266628
-4.150996	BALABALAMA	-0.2360536
-4.329257	BALABALAMAMA	-0.1266628
-4.329257	BALABALAMAME	-0.1266628
-4.329257	BALABALAME	-0.1266628
-4.329257	BALABALARI	-0.1266628
-4.329257	BALABALARNA	-0.1266628
-3.346976	BALAFA	-0.4190851
-4.329257	BALAFAKA	-0.1266628
-4.329257	BALAFAKE	-0.1266628
-3.437013	BALAFAMA	-0.2540675
-4.329257	BALAFAMABIA	-0.1266629
-4.150996	BALAFAMABO	-0.2360536
-3.809582	BALAFAMAME	-0.398284
-4.329257	BALAFAMATEIN	-0.1266628
-3.621144	BALAFAMAYE	-0.4748141
-3.705222	BALAFAME	-0.1726135
-4.329257	BALALAMA	-0.1266628
-4.329257	BALI	-0.1266628
-4.329257	BAMA	-0.1266628
-4.329257	BAMAME	-0.1266628
-3.621144	BAME	-0.3547476
-4.150996	BAN	-0.2360536
-4.329257	BAR	-0.1266628
-2.081845	BARA	-0.5765342
-4.477014	BARABARA
-3.809582	BARABAS	-0.2331973
-4.329257	BARABU	-0.1266629
-3.30811	BARACHUA	-0.2181892
-4.329257	BARACHUABIA	-0.1266629
-3.947228	BARACHUABO	-0.2733453
-4.329257	BARACHUABOBE	-0.1266628
-4.329257	BARACHUAME	-0.1266629
-4.150996	BARAFISA	-0.1266628
-4.329257	BARAIBI	-0.1266628
-4.329257	BARAKE	-0.1266628
-4.150996	BARAKUBU	-0.1266628
-4.329257	BARAKUBUYE	-0.1266628
-3.947228	BARALABIA	-0.1964486
-4.150996	BARAMA	-0.1266628
-4.329257	BARAMGBA	-0.1266628
-4.477014	BARAMUNO
-4.150996	BARANA	-0.1266628
-4.329257	BARASE	-0.1266628
-4.329257	BARASI	-0.1266628
-4.329257	BARASIBIA	-0.1266629
-4.329257	BARASIKAPU	-0.1266628
-4.329257	BARASIMA	-0.1266628
-3.389665	BARASIN	-0.3068283
-4.150996	BARASINBIA	-0.1266628
-4.329257	BARASINKA	-0.1266628
-4.329257	BARASINKE	-0.1266628
-4.329257	BARASINMAE	-0.1266629
-4.329257	BARASINME	-0.1266628
-4.329257	BARASINPIR	-0.1266628
-4.329257	BARASINPIRIYE	-0.1266628
-4.329257	BARASINSAM	-0.1266628
-4.150996	BARATUMGBALI	-0.2360535
-3.001199	BARI	-0.2134357
-4.329257	BARIMA	-0.1266628
-4.329257	BARO	-0.1266628
-4.329257	BAS	-0.1266628
-4.329257	BASA	-0.1266628
-4.329257	BASAM	-0.1266628
-4.329257	BASINBIA	-0.1266628
-4.150996	BASO	-0.1266628
-4.150996	BATIMIOS	-0.1266628
-4.150996	BATOLOMIU	-0.1266628
-4.329257	BAYE	-0.1266628
-4.477014	BBEYE
-3.809582	BEABE	-0.2071034
-3.947228	BEAPU	-0.2733453
-4.329257	BEARI	-0.1266628
-3.947228	BEB	-0.1266628
-2.413327	BEBE	-0.4233487
-4.329257	BEBELEMABIA	-0.1266628
-4.150996	BEBEMA	-0.1266628
-3.490162	BEBIA	-0.2079803
-4.329257	BEBIAWA	-0.1266628
-3.490162	BEBO	-0.2838928
-4.329257	BEENI	-0.1266629
-3.550734	BEIN	-0.289418
-4.150996	BEINBIA	-0.1266628
-3.550734	BEINMA	-0.1671755
-4.477014	BEINMABE
-4.150996	BEINMABIA	-0.1671755
-3.947228	BEINMAME	-0.1964486
-4.329257	BEINMASAM	-0.1266628
-3.621144	BEINME	-0.2204723
-4.150996	BEINSAM	-0.2360535
-4.329257	BEINWATAWATA	-0.1266628
-3.621144	BEKE	-0.2040154
-4.329257	BEKEMA	-0.1266628
-4.150996	BEKERE	-0.1266628
-4.329257	BEKETUBO	-0.1266628
-3.705222	BELE	-0.1515371
-4.150996	BELEBIA	-0.2360536
-4.329257	BELEBO	-0.1266628
-4.329257	BELEKA	-0.1266628
-4.329257	BELEKE	-0.1266628
-4.329257	BELEKI	-0.1266628
-2.918007	BELEMA	-0.3119142
-3.809582	BELEMABIA	-0.1760471
-4.329257	BELEMABO	-0.1266628
-4.329257	BELEMAKA	-0.1266628
-4.150996	BELEMAKE	-0.2360535
-4.150996	BELEMAMA	-0.1266628
-3.437013	BELEMAME	-0.3162094
-4.329257	BELEMANE	-0.1266628
-4.150996	BELEMASA	-0.1266628
-3.809582	BELEMATEIN	-0.1779231
-4.329257	BELEMAYE	-0.1266628
-3.809582	BELEME	-0.2317761
-4.329257	BELEPAKABIA	-0.1266628
-4.329257	BELETEMEBO	-0.1266628
-3.809582	BELZIBOL	-0.1779231
-4.329257	BELZIBOLS	-0.1266628
-3.947228	BEM	-0.1266628
-4.150996	BEMA	-0.1266628
-3.153373	BEME	-0.2294592
-4.329257	BEMI	-0.1266628
-4.329257	BEMIKASE	-0.1266628
-4.329257	BEMONO	-0.1266628
-4.329257	BEMP	-0.1266628
-4.329257	BEN	-0.1266628
-3.621144	BENE	-0.1760471
-4.477014	BENENIKA
-4.329257	BEORIA	-0.1266628
-4.329257	BERAKAIA	-0.1266628
-2.679414	BERE	-0.393738
-3.947228	BEREBARASI	-0.1779231
-4.329257	BEREBELE	-0.1266628
-4.329257	BEREBIA	-0.1266628
-4.329257	BEREBIYA	-0.1266628
-4.329257	BERECHI	-0.1266628
-3.809582	BERECHIRI	-0.3286861
-4.329257	BEREDUKO	-0.1266628
-4.329257	BEREENI	-0.1266628
-4.329257	BEREFAMA	-0.1266628
-4.329257	BEREIKE	-0.1266628
-4.329257	BEREJINE	-0.1266628
-4.150996	BEREJINEA	-0.1266628
-4.477014	BEREK
-3.039519	BEREKON	-0.3560409
-3.947228	BEREKONBO	-0.1266628
-3.947228	BEREKONWARI	-0.1671755
-4.329257	BEREKOWARI	-0.1266628
-4.329257	BEREMA	-0.1266628
-4.329257	BEREMBERE	-0.1266628
-3.947228	BEREMI	-0.1964486
-2.888732	BERENI	-0.31767
-4.329257	BERENIABE	-0.1266629
-4.329257	BERENIAPU	-0.1266628
-4.329257	BERENIARI	-0.1266628
-4.477014	BERENIB
-4.329257	BERENIBE	-0.1266628
-3.809582	BERENIBIA	-0.1779231
-4.329257	BERENIBO	-0.1266628
-3.705222	BERENIKA	-0.4078673
-3.490162	BERENIKE	-0.218531
-4.329257	BERENIM	-0.1266628
-4.329257	BERENIMA	-0.1266628
-3.705222	BERENIME	-0.1943609
-4.329257	BERENIOKIME	-0.1266628
-4.329257	BERENIPIRIYE	-0.1266628
-4.329257	BERENISA	-0.1266628
-4.329257	BERENISAM	-0.1266628
-4.329257	BERENIYE	-0.1266628
-3.705222	BEREPELE	-0.2162826
-3.705222	BERESI	-0.2742745
-4.477014	BERET
-3.621144	BERETIBI	-0.4078674
-4.150996	BERETIBINEMIKA	-0.1266628
-3.346976	BERETON	-0.2074607
-4.329257	BERETONBO	-0.1266628
-3.437013	BERI	-0.161356
-4.329257	BERIJIINEYE	-0.1266628
-4.329257	BERIJINE	-0.1266628
-4.150996	BERIJINEME	-0.1964486
-4.329257	BERTANI	-0.1266628
-4.329257	BES	-0.1266628
-4.329257	BESAM	-0.1266628
-4.477014	BESIKI
-3.550734	BETANI	-0.1815168
-4.150996	BETFEGI	-0.2360536
-3.947228	BETLIHEM	-0.1964486
-4.329257	BETLIHEN	-0.1266628
-3.809582	BETSAIDA	-0.1779231
-4.329257	BETZATA	-0.1266629
-4.329257	BEYE	-0.1266628
-2.422906	BIA	-0.4376473
-4.329257	BIAB	-0.1266629
-3.947228	BIABE	-0.1266628
-4.329257	BIABELEME	-0.1266629
-3.809582	BIABIA	-0.1266628
-4.150996	BIABO	-0.1266628
-4.150996	BIAKE	-0.1266628
-4.329257	BIAMABIA	-0.1266629
-3.621144	BIAME	-0.2607873
-4.329257	BIAN	-0.1266628
-4.329257	BIANMAME	-0.1266629
-4.329257	BIANME	-0.1266628
-4.477014	BIAOKU
-4.329257	BIAPAKA	-0.1266628
-4.329257	BIAPAKAME	-0.1266628
-4.329257	BIAPU	-0.1266628
-4.329257	BIARA	-0.1266628
-3.550734	BIARI	-0.2345629
-4.329257	BIARIAYE	-0.1266628
-4.329257	BIARIYE	-0.1266628
-4.329257	BIAS	-0.1266628
-4.150996	BIAYE	-0.2360536
-4.329257	BIBI	-0.1266628
-3.809582	BIBIA	-0.2607873
-4.329257	BIBIME	-0.1266628
-4.329257	BIBO	-0.1266628
-2.180591	BIE	-0.3247445
-4.150996	BIEAPU	-0.2360536
-4.329257	BIEARAMAKE	-0.1266629
-4.329257	BIEBARAMA	-0.1266628
-4.329257	BIEBARAMASAM	-0.1266628
-4.329257	BIEBARAME	-0.1266628
-4.477014	BIEBE
-4.329257	BIEBEL	-0.1266628
-3.001199	BIEBELE	-0.3207393
-4.329257	BIEBELEARI	-0.1266628
-4.150996	BIEBELEBIA	-0.1266628
-4.329257	BIEBELEM	-0.1266628
-4.150996	BIEBELEMA	-0.1671755
-4.329257	BIEBELEMAKE	-0.1266628
-4.329257	BIEBELEMAME	-0.1266629
-3.947228	BIEBELEME	-0.2360535
-4.329257	BIEBELOKE	-0.1266628
-4.329257	BIEJI	-0.1266628
-4.329257	BIEJU	-0.1266628
-3.621144	BIEJUADAPU	-0.5743753
-4.150996	BIEJUDABO	-0.1266628
-4.329257	BIEKOMA	-0.1266629
-3.947228	BIEKOROMA	-0.1874034
-4.329257	BIEKOROMABA	-0.1266629
-4.150996	BIEKOROMABIA	-0.1266628
-4.329257	BIEKOROMAKA	-0.1266628
-4.150996	BIEKOROMAME	-0.1964486
-4.329257	BIEKOROMASAM	-0.1266628
-4.329257	BIEKPOMA	-0.1266628
-4.329257	BIELOKOKO	-0.1266628
-4.329257	BIELPLP	-0.1266628
-4.329257	BIENME	-0.1266628
-4.477014	BIEOMI
-4.329257	BIERI	-0.1266628
-4.329257	BIES	-0.1266628
-4.329257	BIESIME	-0.1266628
-4.329257	BIETON	-0.1266628
-4.329257	BIETONKA	-0.1266628
-4.329257	BIGBEIN	-0.1266628
-4.150996	BIKA	-0.1266628
-3.437013	BIKE	-0.2326282
-3.437013	BIKI	-0.1869001
-4.329257	BIKIBA	-0.1266629
-4.329257	BIKIBIA	-0.1266628
-4.329257	BIKIEKA	-0.1266628
-4.150996	BIKIKORO	-0.1266628
-4.329257	BIKIMUN	-0.1266628
-4.477014	BILE
-4.329257	BILEMA	-0.1266628
-4.329257	BILEMASAM	-0.1266629
-4.329257	BILESAM	-0.1266629
-3.08155	BIME	-0.2939721
-3.947228	BIN	-0.1964486
-4.329257	BINBINKA	-0.1266628
-3.947228	BINMA	-0.1266628
-4.329257	BINMAKE	-0.1266629
-4.329257	BINMAME	-0.1266629
-4.329257	BINME	-0.1266628
-4.329257	BIOI	-0.1266628
-4.477014	BIOKU
-4.150996	BIOME	-0.1266628
-2.933419	BIPI	-0.2655711
-4.329257	BIPIBOKO	-0.1266628
-4.329257	BIPIKALAYE	-0.1266628
-4.329257	BIPINIKI	-0.1266628
-4.329257	BIPIOGBO	-0.1266628
-3.947228	BIPIOGBOSO	-0.1266628
-4.329257	BIPIPEKERE	-0.1266628
-4.329257	BIPIPOKI	-0.1266628
-4.329257	BIPIPOKIKA	-0.1266629
-4.329257	BIPIPOKIME	-0.1266629
-4.329257	BIPITOLUMA	-0.1266628
-4.329257	BIRARI	-0.1266629
-3.437013	BIRI	-0.2205561
-3.947228	BIRIAPU	-0.1964486
-3.947228	BIRIAYE	-0.1964486
-3.947228	BIRIBO	-0.1266628
-4.329257	BIRIKUN	-0.1266628
-4.329257	BIRIKUNBIA	-0.1266628
-4.329257	BIRIKUNME	-0.1266628
-4.150996	BIRIKUNYE	-0.2360536
-3.809582	BIRIMA	-0.1779231
-4.477014	BIRIMAEKA
-4.329257	BIRIMAME	-0.1266628
-4.477014	BIRIME
-4.329257	BIRIR	-0.1266628
-4.329257	BIRISA	-0.1266628
-4.329257	BIRISAM	-0.1266628
-3.30811	BITE	-0.3961597
-4.150996	BITEPEKERE	-0.2360536
-3.705222	BIYA	-0.1601555
-4.329257	BIYAME	-0.1266629
-4.329257	BIYANME	-0.1266628
-4.329257	BIYE	-0.1266628
-4.329257	BLJGBANA	-0.1266628
-4.329257	BME	-0.1266628
-4.329257	BNUMBIREOWU	-0.1266629
-3.490162	BOABE	-0.1418007
-4.329257	BOADE	-0.1266628
-4.329257	BOANAJIS	-0.1266628
-4.329257	BOAPU	-0.1266628
-3.550734	BOARI	-0.1951426
-4.150996	BOAZ	-0.2360536
-4.329257	BOB	-0.1266628
-3.705222	BOBE	-0.1266628
-4.329257	BOBEREPELEBO	-0.1266628
-3.001199	BOBIA	-0.2924868
-3.550734	BOBO	-0.1671756
-4.329257	BOBOME	-0.1266628
-4.329257	BOFA	-0.1266628
-4.150996	BOFIA	-0.1266628
-3.437013	BOI	-0.2193053
-4.329257	BOIAYE	-0.1266628
-4.329257	BOIBIA	-0.1266628
-3.550734	BOIMA	-0.2382845
-4.329257	BOIMAME	-0.1266628
-4.150996	BOISIME	-0.2360535
-4.329257	BOIYE	-0.1266628
-4.477014	BOJU
-3.08155	BOKA	-0.2652688
-3.621144	BOKATEIN	-0.2331973
-4.150996	BOKATEINBO	-0.1964486
-4.329257	BOKATEINME	-0.1266628
-3.809582	BOKE	-0.1947081
-4.329257	BOKI	-0.1266628
-3.346976	BOKO	-0.341802
-4.329257	BOKOKO	-0.1266628
-4.329257	BOLA	-0.1266628
-4.329257	BOLASAM	-0.1266628
-3.621144	BOLI	-0.1947082
-3.153373	BOLO	-0.3281088
-4.329257	BOLOABE	-0.1266628
-4.329257	BOLOEKE	-0.1266628
-4.329257	BOLOJU	-0.1266629
-3.621144	BOLOKA	-0.1835838
-3.947228	BOLOLO	-0.1779231
-4.329257	BOLOLOME	-0.1266628
-3.809582	BOLOMA	-0.1779231
-4.329257	BOLOMABIA	-0.1266628
-4.329257	BOLOMAYE	-0.1266628
-4.329257	BOLOSA	-0.1266628
-4.150996	BOLOSIKI	-0.1266629
-3.104197	BOMA	-0.3592527
-4.477014	BOMABE
-4.329257	BOMABIA	-0.1266629
-4.329257	BOMAME	-0.1266628
-2.903123	BOME	-0.4072192
-3.809582	BON	-0.398284
-3.437013	BOO	-0.3711846
-3.389665	BOOK	-0.2967108
-4.329257	BOOMINE	-0.1266628
-4.329257	BOOR	-0.1266628
-4.329257	BOPIRIKE	-0.1266629
-4.329257	BOR	-0.1266628
-4.329257	BORE	-0.1266628
-4.329257	BORI	-0.1266628
-4.329257	BORNE	-0.1266629
-2.77702	BORO	-0.302258
-3.947228	BOROABE	-0.1671756
-3.947228	BOROARI	-0.1671756
-4.329257	BOROASI	-0.1266628
-3.621144	BOROBIA	-0.1964486
-4.329257	BOROBOROKE	-0.1266629
-4.329257	BOROKA	-0.1266628
-3.490162	BOROMA	-0.1686422
-3.550734	BOROME	-0.2607873
-4.329257	BOROMUN	-0.1266628
-4.329257	BORON	-0.1266628
-3.389665	BOROSA	-0.2287961
-3.346976	BOROSAM	-0.3052313
-4.329257	BOROSIMEME	-0.1266629
-4.150996	BOROSO	-0.1266628
-4.477014	BOROYE
-4.329257	BOS	-0.1266628
-4.477014	BOSA
-3.550734	BOSAM	-0.1760471
-4.329257	BOSIKI	-0.1266629
-4.329257	BOSOM	-0.1266628
-4.329257	BOU	-0.1266628
-4.329257	BOW	-0.1266628
-4.477014	BOYE
-4.329257	BPARA	-0.1266628
-4.150996	BRA	-0.1964486
-4.329257	BRESI	-0.1266628
-4.329257	BRI	-0.1266628
-4.329257	BUAKU	-0.1266628
-4.477014	BUAMAM
-4.329257	BUARI	-0.1266628
-4.329257	BUB	-0.1266628
-4.329257	BUBALABA	-0.1266628
-3.437013	BUBALABALA	-0.3801066
-4.329257	BUBALABALAMAME	-0.1266628
-4.329257	BUBALABALAME	-0.1266628
-4.329257	BUBALABLAMAME	-0.1266628
-4.150996	BUBAMA	-0.1266628
-4.329257	BUBAMABE	-0.1266628
-4.329257	BUBAMABIA	-0.1266628
-4.329257	BUBAMAME	-0.1266628
-4.329257	BUBANA	-0.1266628
-4.329257	BUBANASIN	-0.1266628
-3.809582	BUBARASIN	-0.2086195
-4.329257	BUBARASINBIA	-0.1266628
-4.329257	BUBARASINKA	-0.1266628
-4.329257	BUBARASINME	-0.1266628
-4.329257	BUBCLCMC	-0.1266629
-4.329257	BUBE	-0.1266628
-3.809582	BUBELE	-0.1938405
-4.329257	BUBELEBELE	-0.1266629
-4.150996	BUBELEBELEME	-0.1266628
-4.329257	BUBELEBIA	-0.1266628
-4.329257	BUBELEBO	-0.1266628
-4.329257	BUBELEME	-0.1266628
-4.150996	BUBELEYE	-0.1266628
-4.329257	BUBEOKU	-0.1266628
-3.947228	BUBIA	-0.1266628
-4.329257	BUBIAJIZOS	-0.1266628
-4.329257	BUBIN	-0.1266628
-4.329257	BUBINME	-0.1266628
-4.329257	BUBIRIPUMAME	-0.1266629
-4.329257	BUBLE	-0.1266628
-4.329257	BUBO	-0.1266628
-4.329257	BUBUAMA	-0.1266628
-4.150996	BUBUAMAME	-0.1266628
-3.809582	BUBUAMAYE	-0.1964486
-4.329257	BUBUAYE	-0.1266628
-4.150996	BUBUME	-0.2360535
-4.329257	BUBUYE	-0.1266628
-4.329257	BUCHAYE	-0.1266628
-4.329257	BUCHUAY	-0.1266628
-2.949398	BUCHUAYE	-0.3742476
-4.329257	BUCHUAYEKAN	-0.1266628
-3.809582	BUCHUAYEMA	-0.1515371
-4.329257	BUD	-0.1266628
-4.150996	BUDIEPAKUMA	-0.2360536
-4.329257	BUDIMA	-0.1266628
-4.477014	BUDUK
-4.329257	BUDUKOAPU	-0.1266628
-4.329257	BUFEKA	-0.1266629
-3.039519	BUFUKA	-0.4205293
-4.477014	BUFUKAM
-3.809582	BUFUKAMA	-0.1938405
-4.150996	BUFUKAMABIA	-0.1266628
-4.329257	BUFUKAMAMA	-0.1266629
-4.150996	BUFUKAMAME	-0.1266628
-4.329257	BUFUKAMARI	-0.1266628
-4.329257	BUFUKAMATEIN	-0.1266628
-4.329257	BUFUKAMAYE	-0.1266628
-4.329257	BUGANA	-0.1266628
-4.329257	BUGBANA	-0.1266628
-4.477014	BUGBANAB
-4.329257	BUGBANABA	-0.1266628
-4.329257	BUGBANABIA	-0.1266628
-4.329257	BUGBANABO	-0.1266628
-4.329257	BUGBANE	-0.1266628
-4.329257	BUGBEIN	-0.1266628
-4.329257	BUGBEINBIA	-0.1266628
-4.150996	BUGBEINKE	-0.1266628
-3.947228	BUGBIRIPU	-0.1964486
-3.346976	BUGBIRIPUMA	-0.2654357
-4.329257	BUGBIRIPUMABE	-0.1266628
-3.947228	BUGBIRIPUMAME	-0.1947082
-3.389665	BUGBIRIPUMAYE	-0.354409
-4.150996	BUGBIRIPUMAYEMA	-0.1266628
-3.705222	BUGBIRIPUME	-0.2742746
-4.329257	BUGBIRIPURNAYE	-0.1266628
-4.329257	BUGBIUIMIVE	-0.1266628
-4.329257	BUGEREEREME	-0.1266628
-4.329257	BUGEREGERE	-0.1266628
-4.329257	BUGERERBIA	-0.1266628
-3.705222	BUGERERE	-0.1266628
-4.329257	BUGEREREKA	-0.1266628
-4.150996	BUGEREREMA	-0.1964486
-4.329257	BUGEREREMAME	-0.1266629
-4.329257	BUIBIKA	-0.1266628
-3.947228	BUIDERIMA	-0.1964486
-4.329257	BUIDERIMAPU	-0.1266628
-4.329257	BUIDERINA	-0.1266628
-4.329257	BUIN	-0.1266628
-4.477014	BUJAN
-4.477014	BUJIKE
-4.329257	BUKA	-0.1266628
-4.150996	BUKAN	-0.2360535
-3.705222	BUKARAKARAMA	-0.1938405
-4.329257	BUKARAKARAMABE	-0.1266629
-4.150996	BUKARAKARAMAME	-0.1266628
-4.329257	BUKARAKARAMASAM	-0.1266628
-4.329257	BUKARAKARANAME	-0.1266628
-3.809582	BUKE	-0.2360535
-4.329257	BUKU	-0.1266628
-4.329257	BUKUBAME	-0.1266628
-3.809582	BUKULO	-0.2415757
-4.329257	BUKULOARI	-0.1266628
-3.705222	BUKULOME	-0.2086195
-4.477014	BUKUR
-3.490162	BUKUROMA	-0.1446107
-3.809582	BULO	-0.185766
-4.150996	BUM	-0.2360536
-4.150996	BUMA	-0.1266628
-3.809582	BUME	-0.1266628
-3.180221	BUN	-1.000344
-3.705222	BUNEMIKA	-0.2118599
-3.104197	BUO	-0.3517281
-4.150996	BUOCHUA	-0.1964486
-4.329257	BUOCHUKKU	-0.1266628
-4.150996	BUOCHUKU	-0.1266628
-4.329257	BUOIKPUKU	-0.1266628
-4.329257	BUOIKPUKUMA	-0.1266628
-4.329257	BUOKOROBIA	-0.1266628
-4.329257	BUOKOROMA	-0.1266628
-3.947228	BUOKOROME	-0.2733453
-4.150996	BUOMA	-0.1266628
-4.329257	BUOSO	-0.1266628
-4.329257	BUOSOBIA	-0.1266628
-4.150996	BUOSOME	-0.1266628
-4.150996	BUOYI	-0.1266628
-4.477014	BUPA
-4.329257	BUPAKUMA	-0.1266628
-4.329257	BUPAKUMAKE	-0.1266628
-3.947228	BUPALIMA	-0.2086195
-4.329257	BUPALIMAKA	-0.1266628
-4.150996	BUPALIMAKE	-0.2360535
-4.329257	BUPALIMAME	-0.1266629
-3.809582	BUPALIMAYE	-0.1266628
-4.329257	BUPALMAYE	-0.1266628
-4.329257	BUPELEBIA	-0.1266628
-4.329257	BUPU	-0.1266628
-4.329257	BURA	-0.1266628
-4.477014	BURASIN
-4.150996	BURASINBIA	-0.1266628
-3.809582	BURO	-0.1601555
-4.150996	BUROME	-0.1964486
-3.30811	BURU	-0.2907506
-3.947228	BURUBA	-0.1671755
-4.329257	BURUSA	-0.1266628
-3.809582	BURUSE	-0.21186
-3.809582	BURUSEBUBAMA	-0.1835838
-4.329257	BURUSEBUBAMABIA	-0.1266629
-4.329257	BURUSEBUBAMAKA	-0.1266628
-4.329257	BURUSEBUBAMAME	-0.1266628
-4.329257	BUSEKIRI	-0.1266628
-4.477014	BUSIN
-4.329257	BUSONI	-0.1266628
-4.329257	CHAMA	-0.1266628
-4.329257	CHAMAGBIN	-0.1266628
-4.329257	CHAN	-0.1266628
-3.128089	CHE	-0.3126134
-4.329257	CHEMIE	-0.1266628
-3.104197	CHEYE	-0.4158184
-4.150996	CHI	-0.1964486
-4.329257	CHIBIA	-0.1266629
-3.019937	CHIE	-0.337968
-4.150996	CHIEBIA	-0.1266628
-3.550734	CHIEMA	-0.2574245
-3.947228	CHIEMABIA	-0.1779231
-3.947228	CHIEMAME	-0.1964486
-3.809582	CHIEME	-0.2162826
-3.621144	CHIESIME	-0.2607873
-3.947228	CHIESIMEAPU	-0.2733453
-4.329257	CHIESIMEARI	-0.1266628
-4.150996	CHIESIMEME	-0.1266628
-4.329257	CHIJU	-0.1266629
-4.329257	CHIME	-0.1266628
-2.949398	CHIN	-0.2588647
-4.150996	CHINBIA	-0.1515371
-4.329257	CHINBIPI	-0.1266628
-3.809582	CHINBO	-0.185766
-3.705222	CHINGBOLU	-0.1671755
-3.208838	CHINGI	-0.4873731
-4.329257	CHINGIMA	-0.1266629
-4.329257	CHINI	-0.1266628
-4.329257	CHINIBOME	-0.1266628
-4.329257	CHINIME	-0.1266629
-4.329257	CHINKA	-0.1266628
-4.150996	CHINMA	-0.1266628
-3.947228	CHINMAGBOLU	-0.1266628
-3.490162	CHINME	-0.2004604
-3.180221	CHINMGBOLU	-0.3942561
-4.329257	CHINMGBOLUS	-0.1266628
-4.329257	CHIRA	-0.1266628
-4.329257	CHIRAME	-0.1266628
-4.150996	CHIRI	-0.1266628
-4.477014	CHIRIMA
-3.550734	CHOCHI	-0.398284
-3.490162	CHU	-0.2205561
-2.861306	CHUA	-0.2378373
-4.329257	CHUABE	-0.1266628
-3.346976	CHUABIA	-0.2497612
-3.705222	CHUAKA	-0.1964486
-3.809582	CHUAKE	-0.398284
-3.239475	CHUAME	-0.2843134
-3.947228	CHUARI	-0.1779231
-4.329257	CHUARIAPU	-0.1266628
-3.947228	CHUASAM	-0.1964486
-4.329257	CHUATEIN	-0.1266628
-4.150996	CHUAYE	-0.1266628
-4.329257	CHUB	-0.1266628
-3.809582	CHUBIA	-0.2019386
-4.329257	CHUE	-0.1266629
-4.150996	CHUKE	-0.1266628
-4.329257	CHUKKA	-0.1266628
-3.346976	CHUKU	-0.1815168
-4.329257	CHUKUCHUA	-0.1266629
-4.329257	CHUKUJU	-0.1266628
-4.329257	CHUKURUMANE	-0.1266628
-4.329257	CHUKWU	-0.1266628
-4.329257	CHUMA	-0.1266628
-3.809582	CHUME	-0.1938405
-4.329257	CHUOSA	-0.1266628
-4.329257	CHUROMA	-0.1266628
-4.329257	CHURU	-0.1266628
-4.329257	CHUSAM	-0.1266628
-4.329257	CIN	-0.1266628
-4.329257	DAABE	-0.1266629
-4.477014	DAB
-4.329257	DABA	-0.1266628
-4.150996	DABE	-0.1266628
-3.809582	DABIA	-0.1779231
-2.745369	DABO	-0.5689347
-3.705222	DABOROMA	-0.2118599
-4.150996	DACHIE	-0.1266628
-4.329257	DACHIEMA	-0.1266628
-4.329257	DACHIEME	-0.1266628
-3.621144	DADA	-0.1515371
-3.947228	DADAMA	-0.1601555
-3.947228	DADIKI	-0.1779231
-4.150996	DADIKIBIA	-0.2360535
-4.329257	DADIKIMA	-0.1266628
-4.329257	DAGBUKUKUMA	-0.1266628
-4.329257	DAHO	-0.1266628
-4.329257	DAIRIMA	-0.1266628
-4.150996	DAIRIMABIA	-0.1266628
-4.477014	DAKA
-4.477014	DAKAMA
-4.329257	DAKE	-0.1266628
-4.329257	DALMANUTA	-0.1266628
-4.329257	DAMA	-0.1266628
-3.947228	DAMABO	-0.1633324
-4.329257	DAMABOABE	-0.1266628
-4.329257	DAMABOARI	-0.1266628
-4.329257	DAMABOBA	-0.1266628
-4.329257	DAMABOBIA	-0.1266628
-4.329257	DAMABOBOME	-0.1266628
-3.947228	DAMABOME	-0.1407018
-4.329257	DAMABOSAM	-0.1266629
-4.150996	DAMAMUABE	-0.1964486
-4.329257	DAMAMUM	-0.1266628
-3.947228	DAMAMUME	-0.1601555
-3.705222	DAMAMUN	-0.3254271
-4.329257	DAMAMUNBIA	-0.1266628
-4.329257	DAMAMUNKA	-0.1266628
-4.329257	DAMAMUNMA	-0.1266628
-4.329257	DAMANUN	-0.1266628
-4.329257	DAMANUNBIA	-0.1266628
-4.329257	DAMAUABE	-0.1266628
-3.705222	DAME	-0.1671756
-4.477014	DANI
-4.329257	DAOKI	-0.1266629
-4.477014	DAP
-3.060026	DAPA	-0.7974687
-4.477014	DAPAKA
-3.180221	DAPU	-0.2361804
-4.329257	DASAM	-0.1266629
-4.150996	DATEKEREMA	-0.1266628
-4.329257	DAVID	-0.1266628
-4.477014	DAW
-4.150996	DAWO	-0.1266628
-4.150996	DAWOBIA	-0.1266628
-3.809582	DAWOJU	-0.1266628
-4.329257	DAWOME	-0.1266628
-4.329257	DAWONEMISA	-0.1266628
-4.329257	DAWOYE	-0.1266628
-3.346976	DAWU	-0.5888308
-3.809582	DAYE	-0.1487019
-4.329257	DAYKI	-0.1266628
-4.150996	DEAPU	-0.1266628
-4.150996	DEAPUFI	-0.2360535
-4.329257	DEBE	-0.1266628
-3.621144	DEBO	-0.2397272
-3.947228	DEBOFI	-0.1964486
-4.329257	DEBOFISA	-0.1266628
-3.346976	DEBUL	-0.5501366
-4.329257	DEBULMA	-0.1266628
-4.329257	DED	-0.1266628
-3.550734	DEDE	-0.2927282
-4.329257	DEI	-0.1266628
-4.329257	DEIEYE	-0.1266628
-4.329257	DEIMNA	-0.1266628
-3.621144	DEIN	-0.1266628
-4.329257	DEINKORO	-0.1266629
-4.329257	DEINKOROBIA	-0.1266629
-3.346976	DEINMA	-0.205811
-4.150996	DEINMAKE	-0.1266628
-4.329257	DEINMAME	-0.1266628
-4.329257	DEINME	-0.1266629
-4.329257	DEIPAKUMAME	-0.1266629
-4.329257	DEKE	-0.1266628
-3.128089	DEKI	-0.2946146
-4.477014	DEKICH
-3.809582	DEKICHIEMA	-0.2317761
-4.329257	DEKICHIEMABIA	-0.1266628
-4.329257	DEKICHIEMAME	-0.1266628
-4.329257	DEKIDEKIMABIA	-0.1266629
-4.329257	DEKIFIARI	-0.1266628
-4.329257	DEKIKA	-0.1266628
-4.150996	DEKIME	-0.1266628
-4.329257	DEKISAM	-0.1266628
-3.947228	DEKISIN	-0.1964486
-4.329257	DEKISINBIA	-0.1266628
-4.329257	DEKISINME	-0.1266629
-4.150996	DEKISINSAM	-0.2360535
-4.150996	DEKISO	-0.1266628
-4.329257	DEMABOME	-0.1266629
-4.329257	DEOKIBO	-0.1266628
-4.329257	DEPAKIMASA	-0.1266629
-3.809582	DEPAKUMA	-0.1601555
-4.329257	DEPAKUMABE	-0.1266628
-3.809582	DEPAKUMABIA	-0.1266628
-4.150996	DEPAKUMAME	-0.1552098
-4.329257	DEPAKUMAPU	-0.1266628
-4.329257	DEPAKUMARI	-0.1266628
-4.477014	DEPAKUMARIYE
-4.329257	DEPAKUMASA	-0.1266629
-4.329257	DEPIKIME	-0.1266629
-3.550734	DERI	-0.3009254
-4.329257	DERIABE	-0.1266628
-4.329257	DERIAPU	-0.1266628
-4.150996	DERIARI	-0.1964486
-4.329257	DERIME	-0.1266628
-4.150996	DERIYE	-0.1266628
-4.329257	DESIME	-0.1266629
-3.809582	DESIN	-0.1947082
-4.150996	DESINBIA	-0.1266628
-4.329257	DESINKA	-0.1266628
-4.329257	DESINMA	-0.1266628
-4.150996	DESINME	-0.1266628
-4.329257	DESINSAM	-0.1266629
-4.329257	DESKI	-0.1266628
-3.104197	DEVID	-0.5505348
-4.329257	DEVIE	-0.1266628
-3.947228	DIA	-0.1779231
-4.329257	DIABOROMABO	-0.1266628
-3.947228	DIAMA	-0.1779231
-4.329257	DIAME	-0.1266628
-4.329257	DIAPAKUMA	-0.1266628
-3.621144	DIE	-0.1581897
-4.329257	DIEABE	-0.1266628
-4.329257	DIEAPHU	-0.1266628
-3.705222	DIEAPU	-0.4078673
-4.150996	DIEARI	-0.1266628
-4.477014	DIEARIAPU
-4.329257	DIEARIBO	-0.1266628
-4.150996	DIEAYE	-0.1964486
-4.329257	DIEBA	-0.1266629
-4.150996	DIEBELEMA	-0.1266628
-4.329257	DIEBELEMABIA	-0.1266628
-4.329257	DIEBELEMAME	-0.1266629
-4.150996	DIEBELEMARI	-0.2360536
-4.329257	DIEBELEMASAM	-0.1266628
-4.329257	DIEBIA	-0.1266628
-4.150996	DIEBO	-0.1779231
-4.329257	DIEDIEME	-0.1266629
-4.329257	DIEKE	-0.1266628
-4.329257	DIEMA	-0.1266628
-3.490162	DIEME	-0.2735422
-4.150996	DIEN	-0.1266628
-3.621144	DIENTU	-0.4041702
-4.329257	DIEPAKUM	-0.1266628
-3.621144	DIEPAKUMA	-0.1657108
-4.150996	DIEPAKUMABE	-0.1266628
-4.150996	DIEPAKUMABERE	-0.1266628
-3.947228	DIEPAKUMABIA	-0.1671756
-4.329257	DIEPAKUMAE	-0.1266628
-3.947228	DIEPAKUMAME	-0.1964486
-4.329257	DIEPAKUMASA	-0.1266629
-4.329257	DIEPAKUMASAM	-0.1266629
-4.329257	DIEPAKUMAYE	-0.1266628
-4.329257	DIEPAKUME	-0.1266629
-3.809582	DIEPIRIAYE	-0.2317761
-3.705222	DIEPIRIYE	-0.4078674
-4.329257	DIESA	-0.1266628
-4.329257	DIESAM	-0.1266628
-4.329257	DIESIMEME	-0.1266629
-3.437013	DIEYE	-0.5510423
-2.903123	DIKI	-0.2886153
-4.329257	DIKIA	-0.1266628
-4.329257	DIKIABE	-0.1266629
-4.150996	DIKIARI	-0.1266628
-4.477014	DIKIBA
-3.809582	DIKIBALAFA	-0.1938405
-4.150996	DIKIBALAFABIA	-0.2360536
-4.329257	DIKIBALAFAKE	-0.1266628
-4.329257	DIKIBALAFAMA	-0.1266628
-4.150996	DIKIBALAFAME	-0.1601555
-3.947228	DIKIBIA	-0.1266628
-4.150996	DIKIBIEBELE	-0.1266628
-4.329257	DIKIBIEBELEME	-0.1266629
-4.329257	DIKIBIEBUARI	-0.1266629
-4.329257	DIKIBO	-0.1266628
-4.329257	DIKIBUGENERE	-0.1266629
-4.329257	DIKIBUGEREME	-0.1266628
-3.550734	DIKIBUGERERE	-0.2730466
-4.329257	DIKIBUGEREREME	-0.1266628
-4.150996	DIKIBUGERERESAM	-0.1266628
-4.329257	DIKIDA	-0.1266628
-3.809582	DIKIDIKI	-0.1779231
-3.947228	DIKIDIKIABE	-0.1964486
-4.329257	DIKIDIKIARI	-0.1266628
-4.329257	DIKIDIKIBIA	-0.1266629
-3.947228	DIKIDIKIBO	-0.1964487
-4.150996	DIKIDIKIME	-0.1266628
-4.329257	DIKIDIKISIME	-0.1266629
-4.329257	DIKIDIKME	-0.1266628
-4.329257	DIKIMA	-0.1266628
-4.329257	DIKIMAYE	-0.1266628
-3.705222	DIKIME	-0.3547476
-4.329257	DIKIPTKOSOLI	-0.1266628
-4.329257	DIKISAM	-0.1266628
-4.329257	DIKISIMA	-0.1266628
-4.329257	DIKISIMABIA	-0.1266629
-4.329257	DIKISIMAKE	-0.1266629
-4.329257	DIKISIMBIA	-0.1266629
-4.329257	DIKISIMEME	-0.1266628
-3.947228	DIKITIBIFOIN	-0.1552098
-4.150996	DIKITIBIFOINME	-0.1266628
-4.329257	DIKITIBIFOMINME	-0.1266628
-4.329257	DIKITIFOINME	-0.1266629
-4.329257	DIKITITBIFOIN	-0.1266628
-4.477014	DIKITOBIUFOIN
-4.150996	DIKITORU	-0.1964486
-4.329257	DIKITORUFUKA	-0.1266628
-4.329257	DIKITORUGBEIN	-0.1266628
-4.329257	DIKITORUSIN	-0.1266628
-4.329257	DIKITORUSINKA	-0.1266628
-4.329257	DIKITORUSINME	-0.1266628
-4.150996	DIMA	-0.2360536
-4.329257	DIMABO	-0.1266628
-4.329257	DIMARI	-0.1266629
-4.329257	DIMARIAPU	-0.1266628
-4.329257	DIMARY	-0.1266629
-4.477014	DIMASAM
-3.039519	DIN	-0.3674458
-4.329257	DINKA	-0.1266629
-3.809582	DINMA	-0.1779231
-4.329257	DINMABIA	-0.1266628
-4.150996	DINMAME	-0.1266628
-4.329257	DINME	-0.1266628
-4.329257	DINSAM	-0.1266629
-3.30811	DIPI	-0.2453797
-4.329257	DIPIABE	-0.1266628
-3.621144	DIPIAYE	-0.5743753
-4.329257	DIPIBIA	-0.1266628
-4.329257	DIPIDIPIYEMGBOLU	-0.1266628
-3.947228	DIPIKA	-0.1601555
-4.329257	DIPIKAYE	-0.1266628
-4.150996	DIPIKE	-0.1266628
-4.329257	DIPIM	-0.1266629
-3.705222	DIPIME	-0.1719194
-4.329257	DIPIYEMBOLU	-0.1266628
-4.329257	DIPIYEMGBLU	-0.1266628
-3.389665	DIPIYEMGBOLU	-0.343698
-4.329257	DIPOME	-0.1266629
-3.208838	DIRI	-0.4873731
-4.329257	DIRIAME	-0.1266629
-4.329257	DIRIDAWOWARI	-0.1266628
-4.477014	DIRIGOBO
-4.477014	DKI
-4.477014	DKICH
-4.329257	DKOME	-0.1266628
-4.329257	DLUKO	-0.1266628
-4.329257	DMAMUNIE	-0.1266629
-4.329257	DOKDOKO	-0.1266628
-3.346976	DOKI	-0.2315356
-3.621144	DOKIABE	-0.2404656
-3.809582	DOKIAPU	-0.2317761
-3.621144	DOKIARI	-0.2878008
-4.329257	DOKIARIAPU	-0.1266628
-3.809582	DOKIBIA	-0.1266628
-3.490162	DOKIBO	-0.2379651
-4.329257	DOKIBOBIA	-0.1266629
-4.329257	DOKIBOKA	-0.1266628
-4.150996	DOKIBOKE	-0.1266628
-4.329257	DOKIBOSAM	-0.1266629
-4.329257	DOKIKA	-0.1266628
-3.809582	DOKIKE	-0.1779231
-4.329257	DOKIKIE	-0.1266628
-4.329257	DOKIM	-0.1266629
-3.705222	DOKIMA	-0.1601555
-3.705222	DOKIMABIA	-0.1671756
-4.329257	DOKIMARI	-0.1266628
-4.329257	DOKIMASINA	-0.1266628
-3.128089	DOKIME	-0.3451898
-4.329257	DOKIOBO	-0.1266628
-4.329257	DOKIOME	-0.1266628
-4.329257	DOKIPAKUMABO	-0.1266628
-4.329257	DOKISAM	-0.1266628
-4.477014	DOKITEIN
-4.477014	DOKIYE
-4.329257	DOKKIBIA	-0.1266628
-3.947228	DOKODOKO	-0.1779231
-4.329257	DOKU	-0.1266628
-4.329257	DOKUBO	-0.1266628
-4.150996	DOKUME	-0.1266628
-4.329257	DOKUSAM	-0.1266628
-3.809582	DORI	-0.1779231
-4.150996	DOSI	-0.1266628
-4.329257	DOSIME	-0.1266629
-4.329257	DPI	-0.1266628
-3.947228	DUA	-0.1266628
-4.477014	DUAB
-3.705222	DUABIA	-0.1601555
-3.08155	DUABOROMA	-0.366863
-3.947228	DUABOROMABIA	-0.1938406
-3.621144	DUABOROMABO	-0.300144
-4.329257	DUABOROMADO	-0.1266628
-4.329257	DUABOROMAKE	-0.1266629
-4.329257	DUABOROMAME	-0.1266628
-4.329257	DUABOROMASAM	-0.1266628
-4.329257	DUABORORMA	-0.1266628
-3.809582	DUBA	-0.1552098
-4.329257	DUBAMA	-0.1266628
-3.809582	DUBATEIN	-0.1671755
-4.329257	DUBATEINME	-0.1266629
-4.329257	DUBATEM	-0.1266628
-4.329257	DUBIE	-0.1266628
-3.621144	DUEIN	-0.2415757
-4.329257	DUEINDIPI	-0.1266628
-4.329257	DUEINDIPINYO	-0.1266628
-4.329257	DUJO	-0.1266628
-2.599769	DUKO	-0.301482
-4.329257	DUKOA	-0.1266628
-3.947228	DUKOABE	-0.1671756
-4.329257	DUKOAPU	-0.1266628
-3.437013	DUKOARI	-0.3187793
-4.329257	DUKOARIYE	-0.1266628
-3.947228	DUKOAYE	-0.2733453
-4.329257	DUKOBELEMABIA	-0.1266628
-3.490162	DUKOBIA	-0.2248167
-4.150996	DUKOBO	-0.1266628
-4.329257	DUKOE	-0.1266628
-4.329257	DUKOINI	-0.1266628
-4.329257	DUKOKA	-0.1266628
-3.809582	DUKOKE	-0.2317761
-4.329257	DUKOKUROMA	-0.1266628
-3.490162	DUKOMA	-0.1815168
-3.389665	DUKOME	-0.29343
-4.329257	DUKONWENGI	-0.1266628
-4.150996	DUKONWENGIAPU	-0.2360536
-4.329257	DUKONWENGIBIA	-0.1266628
-4.329257	DUKONWENGIKA	-0.1266628
-4.329257	DUKOO	-0.1266628
-4.329257	DUKOPAKMA	-0.1266628
-3.947228	DUKOPAKUMA	-0.21186
-4.329257	DUKOPAKUMABIA	-0.1266628
-3.947228	DUKOPAKUMAME	-0.1266628
-4.329257	DUKOPELEME	-0.1266628
-4.329257	DUKORI	-0.1266628
-4.329257	DUKORME	-0.1266628
-4.329257	DUKOSA	-0.1266628
-4.329257	DUKOSAM	-0.1266629
-4.329257	DUKOSIMA	-0.1266628
-4.329257	DUKOSIMEME	-0.1266628
-4.329257	DUKOSO	-0.1266628
-4.329257	DUKOWASAMAME	-0.1266628
-3.550734	DUKOYE	-0.1867284
-3.705222	DUKU	-0.1266628
-4.150996	DUKUKA	-0.1266628
-3.208838	DUKUKE	-0.3088726
-4.329257	DUKUNO	-0.1266628
-4.329257	DUKYKE	-0.1266628
-2.848217	DUMO	-0.3045525
-4.329257	DUMOAPU	-0.1266628
-3.947228	DUMOBIA	-0.1835838
-4.329257	DUMOBIAYE	-0.1266628
-4.329257	DUMOBO	-0.1266628
-4.329257	DUMOGBAMASO	-0.1266628
-4.329257	DUMOGBASO	-0.1266628
-4.329257	DUMOMASAM	-0.1266628
-4.329257	DUMONYANABIA	-0.1266628
-4.329257	DUMOSAM	-0.1266628
-4.329257	DUOIN	-0.1266628
-2.949398	DUPARI	-0.4593707
-4.329257	DUPARIMA	-0.1266628
-4.329257	DUPO	-0.1266628
-4.477014	EANIOKUMA
-4.477014	EAR
-4.329257	EBA	-0.1266628
-4.150996	EBE	-0.1266628
-4.150996	EBEL	-0.2360536
-4.329257	EBEMA	-0.1266628
-3.08155	EBRAHAM	-0.6280844
-4.329257	EBRAHARN	-0.1266628
-4.329257	EDELE	-0.1266628
-4.477014	EDENI
-4.477014	EDNI
-4.477014	EDUEIN
-4.477014	EFATA
-3.809582	EFERE	-0.21186
-4.150996	EHAZ	-0.2360536
-4.477014	EINMA
-4.477014	EINMAM
-3.621144	EJE	-0.2339096
-2.874803	EKA	-0.48534
-4.329257	EKAYE	-0.1266628
-2.526303	EKE	-0.508575
-4.329257	EKELI	-0.1266628
-4.329257	EKEO	-0.1266628
-4.329257	EKPE	-0.1266628
-4.329257	ELAI	-0.1266628
-3.621144	ELE	-0.1938405
-4.329257	ELEABE	-0.1266629
-3.389665	ELEKIMA	-0.3088726
-4.329257	ELEKINA	-0.1266628
-4.329257	ELEKINTA	-0.1266628
-4.150996	ELELENDA	-0.1266628
-3.621144	ELEOGBO	-0.2878008
-3.809582	ELESIKA	-0.2086195
-4.150996	ELIAKIM	-0.2360536
-4.150996	ELIEZA	-0.2360536
-4.150996	ELIUD	-0.2360536
-3.437013	ELIZABET	-0.5839586
-4.329257	ELMEDAM	-0.1266628
-4.150996	ELOI	-0.1266628
-3.705222	EMBE	-0.1266628
-4.329257	EME	-0.1266628
-4.150996	EMIOS	-0.1266628
-4.329257	EMOS	-0.1266628
-4.477014	ENA
-3.809582	ENDE	-0.1266628
-4.329257	ENDESONOASIFINJI	-0.1266628
-2.607107	ENE	-0.5703791
-4.329257	ENEBA	-0.1266628
-4.477014	ENEBENE
-4.329257	ENEKAK	-0.1266628
-3.947228	ENEKAKA	-0.21186
-4.329257	ENEKUB	-0.1266628
-4.150996	ENEKUBO	-0.2360536
-3.208838	ENEKUBU	-0.4221955
-3.947228	ENEMA	-0.1779231
-4.329257	ENEMENIBO	-0.1266628
-3.809582	ENEOGBOIN	-0.2317761
-4.329257	ENESAN	-0.1266628
-4.329257	ENETIBI	-0.1266628
-4.329257	ENGIME	-0.1266629
-3.947228	ENI	-0.2733453
-4.329257	ENIELAPU	-0.1266628
-4.329257	ENJEIBO	-0.1266628
-4.150996	ENJEL	-0.2360535
-3.30811	ENJELAPU	-0.4770771
-3.437013	ENJELBO	-0.3521384
-4.329257	ENJELOGBO	-0.1266628
-4.329257	ENOK	-0.1266628
-4.477014	ENORI
-4.329257	ENYE	-0.1266628
-4.329257	ENYEME	-0.1266629
-4.150996	EPELE	-0.2360536
-4.329257	ERC	-0.1266628
-4.329257	ERCCH	-0.1266629
-3.947228	ERCHI	-0.1266628
-3.001199	ERE	-0.4409388
-3.947228	EREBARA	-0.2317761
-4.329257	ERECH	-0.1266629
-4.150996	ERECHE	-0.1266628
-2.645784	ERECHI	-0.4351218
-4.477014	EREMA
-2.949398	EREMENI	-0.4189657
-4.329257	EREMENIAMINAPU	-0.1266628
-3.947228	EREMENIAWO	-0.1779231
-4.477014	EREMENIB
-4.329257	EREMENIBIO	-0.1266628
-4.329257	EREMENIBMA	-0.1266628
-2.823165	EREMENIBO	-0.4222384
-4.329257	EREMENIBOMA	-0.1266628
-4.329257	EREMENIMA	-0.1266628
-4.150996	EREMENIMINAPU	-0.1266628
-3.550734	EREMENITOKU	-0.2607873
-4.150996	EREMINIAWO	-0.2360536
-4.477014	ERENI
-4.477014	ERENIBE
-4.150996	ERESO	-0.2360536
-3.389665	EREYA	-0.3099832
-4.329257	EREYABE	-0.1266628
-3.490162	EREYABO	-0.5096495
-4.477014	ERI
-4.477014	ERIMA
-4.329257	ESENIE	-0.1266629
-4.329257	ESLI	-0.1266628
-4.477014	ESO
-4.150996	ETERA	-0.1779231
-4.477014	ETON
-3.947228	ETUBO	-0.1964486
-4.329257	FAABE	-0.1266629
-4.150996	FABIA	-0.1266628
-4.329257	FABUSO	-0.1266628
-4.329257	FAEKE	-0.1266629
-4.329257	FAKA	-0.1266628
-4.329257	FAKE	-0.1266628
-4.329257	FAM	-0.1266628
-3.621144	FAMA	-0.2347614
-4.329257	FAMABE	-0.1266628
-3.947228	FAMABIA	-0.1779231
-4.150996	FAMABO	-0.1266628
-4.329257	FAMAKA	-0.1266628
-4.329257	FAMAKE	-0.1266629
-3.947228	FAMAME	-0.2733452
-4.329257	FAMARI	-0.1266628
-3.705222	FAME	-0.1487019
-4.329257	FAN	-0.1266628
-4.329257	FANGALADIRI	-0.1266628
-4.329257	FANGALAMA	-0.1266628
-4.329257	FANGALAME	-0.1266628
-4.329257	FANUEL	-0.1266628
-4.329257	FAPU	-0.1266628
-3.947228	FARI	-0.1964486
-4.150996	FARIBIA	-0.2360535
-4.329257	FARISAPU	-0.1266628
-3.947228	FARISI	-0.2317761
-4.477014	FARISIAP
-3.104197	FARISIAPU	-0.7136073
-3.705222	FARISIBO	-0.4078673
-4.329257	FASAM	-0.1266629
-4.329257	FAVE	-0.1266628
-4.329257	FBEINYE	-0.1266628
-4.329257	FBU	-0.1266628
-4.329257	FEACHIRIMA	-0.1266628
-4.329257	FEARI	-0.1266629
-4.150996	FEBIA	-0.1266628
-4.329257	FEBO	-0.1266628
-4.150996	FECHIRI	-0.1266628
-4.329257	FEDIA	-0.1266628
-4.329257	FEDIAMA	-0.1266628
-4.329257	FEINKA	-0.1266628
-3.947228	FEINKABO	-0.1964486
-3.947228	FEME	-0.1964486
-3.550734	FENI	-0.358136
-4.329257	FENIANGA	-0.1266628
-4.329257	FENIWARI	-0.1266628
-4.329257	FESAM	-0.1266628
-4.329257	FESCHIRI	-0.1266628
-4.329257	FIABE	-0.1266629
-4.329257	FIADIA	-0.1266629
-4.150996	FIAFA	-0.1266628
-3.001199	FIAFIA	-0.3654044
-4.329257	FIAFIABIA	-0.1266629
-3.08155	FIAFIADIRI	-1.097254
-3.947228	FIAFIADIRIMA	-0.1266628
-4.329257	FIAFIAKA	-0.1266628
-4.329257	FIAFIAMA	-0.1266628
-4.329257	FIAFIAMABE	-0.1266628
-4.329257	FIAFIAMABIA	-0.1266629
-4.150996	FIAFIAMAME	-0.2360535
-4.329257	FIAFIAMASAM	-0.1266628
-3.947228	FIAFIAME	-0.1266628
-4.329257	FIAFIAPU	-0.1266628
-4.150996	FIAFIASAM	-0.1266628
-4.329257	FIAKABO	-0.1266628
-3.272438	FIAPU	-0.4201518
-4.477014	FIAR
-4.150996	FIARI	-0.1266628
-4.329257	FIATIA	-0.1266628
-4.150996	FIAYE	-0.1266628
-3.239475	FIB	-0.8058074
-3.437013	FIBIA	-0.2435625
-4.329257	FIBIAPU	-0.1266628
-4.329257	FIBIAYE	-0.1266628
-4.329257	FIBIE	-0.1266628
-3.809582	FIBO	-0.398284
-4.329257	FIBOROSAM	-0.1266628
-4.150996	FIBU	-0.1266628
-4.329257	FIBUISE	-0.1266628
-3.490162	FIBUSISE	-0.244892
-4.329257	FIBUSISEBIA	-0.1266628
-4.329257	FIBUSISEME	-0.1266629
-4.329257	FIBUSISESAM	-0.1266629
-3.621144	FIE	-0.1874034
-4.477014	FIEA
-4.329257	FIEABE	-0.1266628
-4.329257	FIEANYE	-0.1266628
-4.477014	FIEAR
-3.947228	FIEARI	-0.2733453
-3.947228	FIEARIYE	-0.1671756
-4.329257	FIEBIA	-0.1266628
-4.329257	FIEBO	-0.1266628
-3.809582	FIEKE	-0.2118599
-3.947228	FIEMA	-0.1964486
-4.150996	FIEMABE	-0.1266628
-4.150996	FIEMAME	-0.1266628
-4.329257	FIEMARI	-0.1266628
-4.329257	FIEMAYE	-0.1266628
-3.809582	FIEME	-0.1266628
-4.329257	FIESIMA	-0.1266628
-4.329257	FIESIMABE	-0.1266629
-4.329257	FIEYE	-0.1266628
-4.329257	FIFAMA	-0.1266628
-3.947228	FIFI	-0.1964486
-4.329257	FIFIBOKE	-0.1266628
-3.947228	FIFIME	-0.2733452
-4.150996	FIFIYE	-0.1266628
-3.272438	FIG	-0.7052003
-3.947228	FII	-0.1266628
-4.329257	FIIBIA	-0.1266629
-4.329257	FIIFAME	-0.1266629
-4.329257	FIIME	-0.1266629
-4.329257	FIIR	-0.1266628
-4.329257	FIIRMA	-0.1266628
-3.809582	FIIYE	-0.2317761
-4.329257	FIJI	-0.1266628
-4.329257	FIKA	-0.1266628
-4.329257	FIKE	-0.1266628
-4.150996	FIKIRI	-0.1671756
-4.477014	FILIB
-3.621144	FILIP	-0.4127395
-4.477014	FILIPA
-4.329257	FILIPAI	-0.1266628
-4.150996	FIMA	-0.1266628
-4.329257	FIMARI	-0.1266628
-3.153373	FIME	-0.3488255
-4.150996	FIN	-0.1266628
-3.550734	FINA	-0.244892
-4.150996	FINAME	-0.1266628
-4.329257	FINASAM	-0.1266629
-3.128089	FINI	-0.347414
-4.329257	FINIJI	-0.1266628
-4.329257	FINIJIME	-0.1266628
-4.329257	FININWENGIBO	-0.1266628
-4.329257	FINITEMIABE	-0.1266628
-2.918007	FINJI	-0.4385542
-4.150996	FINJIBIA	-0.1964486
-4.329257	FINJIFINJI	-0.1266628
-4.329257	FINJIKA	-0.1266629
-4.329257	FINJIKE	-0.1266629
-3.947228	FINJIMA	-0.1964486
-3.947228	FINJIME	-0.1938405
-4.329257	FINJISAM	-0.1266628
-3.947228	FINMA	-0.1266628
-4.477014	FINMAN
-4.150996	FINMARI	-0.1266628
-4.329257	FINMARIYE	-0.1266628
-4.329257	FINNWENGP	-0.1266628
-4.329257	FINYO	-0.1266628
-4.329257	FINYOTEIN	-0.1266628
-4.329257	FIOJU	-0.1266628
-4.329257	FIREINWENGI	-0.1266628
-4.329257	FIRENWENGI	-0.1266629
-4.477014	FIRENWENGIBO
-2.983237	FIRI	-0.4630574
-4.477014	FIRIKIRI
-3.153373	FIRIMA	-0.2365841
-4.329257	FIRIMABE	-0.1266628
-3.947228	FIRIMABIA	-0.1601555
-4.329257	FIRIMABO	-0.1266628
-4.329257	FIRIMAKE	-0.1266628
-4.329257	FIRIMAKENA	-0.1266628
-3.389665	FIRIMAME	-0.1901429
-4.329257	FIRIMANE	-0.1266629
-4.329257	FIRIMARI	-0.1266628
-4.329257	FIRIMASAM	-0.1266628
-4.329257	FIRIMWENGIAPU	-0.1266628
-4.329257	FIRINENGIAPU	-0.1266628
-4.329257	FIRINNWENGIBO	-0.1266628
-4.329257	FIRINWEBGIAPU	-0.1266628
-3.039519	FIRINWENGI	-0.305386
-4.150996	FIRINWENGIABE	-0.1266628
-3.128089	FIRINWENGIAPU	-0.4623434
-4.329257	FIRINWENGIARI	-0.1266628
-4.150996	FIRINWENGIBIA	-0.1266628
-2.848217	FIRINWENGIBO	-0.5681614
-4.329257	FIRINWENGIKE	-0.1266628
-3.705222	FIRINWENGIME	-0.2086195
-4.329257	FIRINWENGISAM	-0.1266628
-4.329257	FIRINWENIGBO	-0.1266628
-4.329257	FIRINWNGIBO	-0.1266628
-4.150996	FIRIR	-0.2360536
-4.329257	FIRITIBI	-0.1266628
-3.809582	FIRITIBIDA	-0.398284
-4.477014	FIRITIBIDAB
-4.150996	FIRITIBIDABO	-0.1266628
-4.329257	FIRITIBINI	-0.1266628
-4.329257	FIRITIBUDA	-0.1266628
-4.329257	FIRIWENGI	-0.1266628
-4.329257	FIRIWENGIME	-0.1266628
-4.329257	FIRMA	-0.1266628
-4.329257	FIRMAME	-0.1266628
-4.329257	FIRNWENGI	-0.1266628
-4.329257	FIRNWENGIBIA	-0.1266629
-4.329257	FIRNWENGIBO	-0.1266628
-3.550734	FISA	-0.2404657
-4.329257	FISABO	-0.1266628
-4.150996	FISAM	-0.1266628
-4.329257	FISO	-0.1266628
-4.329257	FITRU	-0.1266628
-3.104197	FITURU	-0.399978
-4.329257	FITURUKE	-0.1266629
-3.947228	FITURUSUMAYE	-0.1266628
-4.329257	FITUURSUMAYE	-0.1266628
-3.947228	FIYA	-0.1266628
-2.823165	FIYE	-0.3113725
-4.329257	FIYEBAA	-0.1266628
-4.329257	FIYIA	-0.1266628
-4.477014	FOI
-4.150996	FOIN	-0.1266628
-4.477014	FOINM
-3.809582	FOMU	-0.1702743
-4.329257	FOMUBARA	-0.1266628
-4.329257	FOMUBIA	-0.1266628
-4.150996	FOMUME	-0.1671756
-3.947228	FOMUYE	-0.1964486
-3.705222	FON	-0.2086195
-4.329257	FONFUMA	-0.1266628
-4.150996	FONGU	-0.2360535
-4.329257	FONISIA	-0.1266628
-4.150996	FONO	-0.1266628
-4.329257	FONOPAKUMAME	-0.1266628
-4.477014	FORI
-3.490162	FORU	-0.3196469
-4.329257	FOSE	-0.1266628
-4.329257	FOUR	-0.1266628
-4.477014	FRIKA
-4.150996	FUA	-0.1779231
-4.150996	FUARO	-0.2360536
-3.947228	FUBARA	-0.1266628
-4.329257	FUBUSISEBIA	-0.1266629
-4.329257	FUKAMASAM	-0.1266628
-4.150996	FUKU	-0.1266628
-3.705222	FULA	-0.495194
-4.150996	FULAWA	-0.1266628
-4.329257	FUME	-0.1266628
-4.477014	FUMU
-4.329257	FUMUMAFUMUMAME	-0.1266628
-4.329257	FUMUME	-0.1266629
-3.550734	FUN	-0.3423181
-3.947228	FUNFUN	-0.2317761
-4.329257	FUNFUNBU	-0.1266628
-4.329257	FUNMA	-0.1266628
-4.329257	FUNMUBIA	-0.1266628
-4.150996	FUR	-0.1266629
-4.329257	FURA	-0.1266628
-4.329257	FURABIA	-0.1266628
-4.329257	FURAME	-0.1266628
-3.30811	FURO	-0.2839464
-4.150996	FUROAPU	-0.1266628
-4.477014	FUROBO
-4.329257	FURROAPU	-0.1266628
-3.809582	FURU	-0.2607873
-3.809582	FURUAPU	-0.1552098
-4.329257	FURUARI	-0.1266628
-4.329257	FURUBIA	-0.1266629
-3.809582	FURUBO	-0.398284
-4.329257	FURUFURUAPU	-0.1266628
-4.329257	FURUMA	-0.1266628
-4.329257	FUYE	-0.1266628
-4.329257	FYE	-0.1266629
-4.329257	GABATA	-0.1266629
-4.329257	GADARA	-0.1266628
-4.329257	GAGA	-0.1266628
-4.150996	GAGAMA	-0.1266628
-4.329257	GAILI	-0.1266628
-4.329257	GAINMA	-0.1266628
-4.150996	GALAGALA	-0.1266628
-4.150996	GALAGALABIA	-0.1266628
-4.150996	GALAGALAMABE	-0.2360535
-3.947228	GALAGALAMAME	-0.1266628
-4.329257	GALAGLABIA	-0.1266629
-2.949398	GALILI	-0.3346123
-3.947228	GALILIAPU	-0.1964486
-4.150996	GALILIT	-0.1266628
-4.329257	GALON	-0.1266628
-4.477014	GAN
-4.329257	GANAGANAMAME	-0.1266628
-4.150996	GARASA	-0.1266628
-4.150996	GBAKIMA	-0.1266628
-4.329257	GBAKIMAYE	-0.1266628
-4.329257	GBAKNMA	-0.1266628
-4.329257	GBALA	-0.1266628
-4.477014	GBALAM
-4.150996	GBAMASO	-0.1266628
-4.329257	GBAMASOBIA	-0.1266629
-3.705222	GBANA	-0.2287961
-3.705222	GBANABIA	-0.173857
-4.477014	GBANABUCHUAYE
-4.477014	GBANAM
-4.150996	GBANAMA	-0.1266628
-4.477014	GBANAMAAYE
-4.329257	GBANAMAYE	-0.1266628
-3.947228	GBANAME	-0.1601555
-4.329257	GBANASAM	-0.1266629
-3.809582	GBANAYE	-0.1671756
-4.477014	GBAR
-4.329257	GBARI	-0.1266628
-4.150996	GBARIMAKA	-0.2360535
-4.329257	GBARIMAKE	-0.1266628
-4.150996	GBASI	-0.1671756
-4.329257	GBASIYE	-0.1266628
-4.329257	GBASKE	-0.1266628
-4.150996	GBASO	-0.1266628
-3.705222	GBASOBIA	-0.2086195
-4.150996	GBASOME	-0.1266628
-4.329257	GBBORI	-0.1266628
-4.329257	GBEIME	-0.1266629
-2.965988	GBEIN	-0.2882668
-3.809582	GBEINBIA	-0.2040154
-4.329257	GBEINBO	-0.1266628
-4.329257	GBEINFIYE	-0.1266628
-3.809582	GBEINKA	-0.2086195
-4.329257	GBEINKAYE	-0.1266628
-3.705222	GBEINKE	-0.1702744
-4.150996	GBEINMA	-0.1266628
-3.490162	GBEINME	-0.2086196
-3.809582	GBEINSAM	-0.1779231
-4.329257	GBEINTEIN	-0.1266629
-3.490162	GBEINYE	-0.1943609
-4.329257	GBEJAME	-0.1266628
-3.550734	GBELA	-0.2347614
-3.947228	GBELABE	-0.2360535
-4.329257	GBELABIA	-0.1266628
-4.329257	GBELAKE	-0.1266628
-4.329257	GBELAM	-0.1266628
-4.329257	GBELAMA	-0.1266628
-3.437013	GBELAME	-0.2344316
-4.150996	GBELARI	-0.1964486
-4.150996	GBELARNE	-0.1266628
-3.947228	GBELAYE	-0.1779231
-4.329257	GBELELAME	-0.1266628
-4.329257	GBELEME	-0.1266628
-4.329257	GBEMBIA	-0.1266629
-4.329257	GBEN	-0.1266628
-4.329257	GBEREREME	-0.1266628
-3.346976	GBIN	-0.1990938
-3.705222	GBINBIA	-0.2040154
-4.150996	GBINMA	-0.1266628
-3.809582	GBINME	-0.2317761
-4.329257	GBIRI	-0.1266628
-4.329257	GBIRIPUMA	-0.1266628
-4.477014	GBIRIPUMAM
-4.329257	GBIRIPUMAMA	-0.1266628
-4.150996	GBIRIPUMAME	-0.1266628
-4.477014	GBIRIPUMAYE
-4.150996	GBIRIPUME	-0.2360536
-4.329257	GBISIRI	-0.1266628
-4.477014	GBN
-4.329257	GBNAMA	-0.1266628
-4.329257	GBNY	-0.1266628
-4.150996	GBO	-0.1266629
-4.329257	GBOBOMA	-0.1266628
-4.150996	GBOGBO	-0.2360536
-3.705222	GBOIN	-0.2580422
-4.329257	GBOINMA	-0.1266628
-4.329257	GBOKULUMA	-0.1266628
-4.329257	GBOLA	-0.1266628
-4.329257	GBOLO	-0.1266628
-4.329257	GBOLOAMYE	-0.1266628
-4.329257	GBOLOARI	-0.1266628
-4.329257	GBOLOBIA	-0.1266628
-4.329257	GBOLOLOMA	-0.1266628
-4.329257	GBOLOM	-0.1266628
-3.346976	GBOLOMA	-0.2259009
-4.329257	GBOLOMABIA	-0.1266628
-4.150996	GBOLOMAME	-0.1266628
-4.329257	GBOLOMARI	-0.1266628
-4.329257	GBOLOMARNE	-0.1266628
-4.329257	GBOLOMASA	-0.1266628
-3.389665	GBOLOMAYE	-0.2442057
-4.329257	GBOLOMMAYE	-0.1266628
-4.329257	GBOLORNA	-0.1266628
-4.329257	GBOLU	-0.1266628
-4.329257	GBONMA	-0.1266628
-4.329257	GBOR	-0.1266628
-2.442722	GBORI	-0.2933831
-4.329257	GBORIABE	-0.1266628
-3.809582	GBORIAPU	-0.1266628
-4.329257	GBORIBARA	-0.1266628
-4.329257	GBORIBIRI	-0.1266628
-2.614572	GBORIBO	-0.3470493
-4.477014	GBORIBOKA
-4.329257	GBORIBON	-0.1266628
-4.329257	GBORIBOS	-0.1266628
-3.705222	GBORIBU	-0.2360535
-4.329257	GBORII	-0.1266628
-4.329257	GBORIKIRI	-0.1266628
-4.329257	GBORIKIRIKIRI	-0.1266628
-4.329257	GBORIME	-0.1266628
-4.329257	GBORISIKIBU	-0.1266628
-4.329257	GBORIY	-0.1266628
-3.001199	GBORIYE	-0.3749821
-3.705222	GBOTUBARA	-0.1266628
-4.329257	GBOTUBUAR	-0.1266628
-4.329257	GBUAMA	-0.1266628
-4.329257	GBUJUJU	-0.1266628
-4.329257	GBUKUKU	-0.1266628
-3.809582	GBUKUKUMA	-0.1266628
-4.329257	GBUKUMAKE	-0.1266629
-3.947228	GBUN	-0.1964486
-4.329257	GBUNKA	-0.1266628
-4.150996	GBUNMA	-0.1779231
-4.329257	GBUNME	-0.1266629
-4.329257	GBURI	-0.1266628
-4.150996	GEBRIEL	-0.1266628
-4.329257	GEDEGEDE	-0.1266628
-4.329257	GEIN	-0.1266628
-3.128089	GELE	-0.3757168
-3.947228	GELEMA	-0.1266628
-3.621144	GELETEIN	-0.2516453
-4.329257	GENESARET	-0.1266629
-4.329257	GENIGENI	-0.1266628
-4.329257	GERASA	-0.1266628
-4.329257	GETSIMENI	-0.1266628
-4.329257	GHEMBO	-0.1266628
-4.329257	GIEIME	-0.1266629
-3.490162	GIEIN	-0.2168536
-4.329257	GIEINBO	-0.1266628
-4.329257	GIEINKA	-0.1266628
-3.947228	GIEINME	-0.1779231
-3.947228	GIEINSA	-0.1964486
-3.809582	GIEINSAM	-0.2317761
-4.329257	GIEM	-0.1266628
-3.621144	GIEN	-0.2607873
-4.150996	GIENBIA	-0.1266628
-4.329257	GIENIN	-0.1266628
-4.329257	GIENME	-0.1266628
-4.329257	GIENSAM	-0.1266628
-4.329257	GIONGIONME	-0.1266628
-4.329257	GISAPUMA	-0.1266628
-4.150996	GOBRI	-0.1266629
-4.329257	GOIL	-0.1266628
-4.329257	GOKA	-0.1266628
-4.329257	GOLGOTA	-0.1266628
-3.809582	GOLI	-0.2040154
-4.329257	GOLOLOMA	-0.1266628
-4.329257	GOLOLOMAME	-0.1266629
-4.329257	GOLOTA	-0.1266628
-4.329257	GOMONIBO	-0.1266628
-4.329257	GOMORA	-0.1266628
-4.150996	GONOGONO	-0.2360535
-4.329257	GORIBO	-0.1266628
-2.755665	GOSE	-0.2451619
-4.329257	GOSEKE	-0.1266628
-3.705222	GOVINA	-0.4078673
-4.329257	GOVINAPU	-0.1266628
-4.150996	GOYE	-0.1266628
-4.329257	GOYEGEYE	-0.1266628
-4.329257	GOYEGIYE	-0.1266628
-4.329257	GOYEGORYE	-0.1266628
-3.947228	GOYEGOY	-0.1266628
-2.637768	GOYEGOYE	-0.3505009
-4.329257	GOYEGYE	-0.1266628
-4.329257	GRAPE	-0.1266628
-4.329257	GRIK	-0.1266628
-4.329257	GTBINBIA	-0.1266628
-3.947228	GUGU	-0.1964486
-4.329257	GUROSIN	-0.1266628
-4.329257	GUROSINME	-0.1266628
-4.329257	GUROSINSAM	-0.1266629
-4.150996	GWA	-0.1266628
-4.329257	GWAMAYE	-0.1266629
-4.329257	GWEBIA	-0.1266628
-4.329257	GWEME	-0.1266628
-3.389665	GWO	-0.2891191
-4.150996	GWOABE	-0.1266628
-3.947228	GWOBIA	-0.1266628
-4.329257	GWOMA	-0.1266629
-3.180221	GWOME	-0.428416
-4.150996	GWOSAM	-0.1266628
-4.329257	HELI	-0.1266628
-4.329257	HENGE	-0.1266628
-4.329257	HERO	-0.1266628
-3.239475	HEROD	-0.5917805
-4.329257	HERODIA	-0.1266628
-3.705222	HERODIAS	-0.2580422
-4.329257	HEXRO	-0.1266628
-4.329257	HEZIKAYA	-0.1266628
-4.329257	HEZIKAYAB	-0.1266628
-4.150996	HEZRON	-0.2360536
-4.150996	HIBRU	-0.1266628
-4.329257	HIBRUBIPI	-0.1266628
-4.329257	HISOP	-0.1266628
-4.477014	IAMA
-4.329257	IBA	-0.1266628
-3.809582	IBAFI	-0.2878008
-4.329257	IBAFIABLE	-0.1266628
-4.329257	IBAFIARI	-0.1266628
-3.947228	IBAFIBIA	-0.1552098
-3.947228	IBAFIBO	-0.2733453
-4.329257	IBAFII	-0.1266628
-4.329257	IBANI	-0.1266628
-4.329257	IBBIKI	-0.1266628
-4.329257	IBE	-0.1266628
-2.622167	IBI	-0.3713588
-4.329257	IBIA	-0.1266628
-4.150996	IBIAPU	-0.2360536
-4.329257	IBIAYE	-0.1266628
-4.329257	IBIBA	-0.1266628
-4.329257	IBIBARA	-0.1266628
-3.705222	IBIBIA	-0.2878008
-4.329257	IBIE	-0.1266628
-4.329257	IBIFUBARA	-0.1266628
-4.329257	IBIKA	-0.1266628
-4.150996	IBILA	-0.1266628
-4.329257	IBIMABA	-0.1266628
-4.329257	IBIMASAM	-0.1266629
-3.437013	IBIME	-0.2415757
-4.329257	IBIMIE	-0.1266628
-4.329257	IBIMIEAPU	-0.1266628
-4.329257	IBIO	-0.1266628
-3.180221	IBIOKU	-0.3882746
-3.947228	IBIOKUMA	-0.1266628
-4.329257	IBIOKUNEMI	-0.1266628
-3.437013	IBIOKWEIN	-0.6297161
-4.329257	IBIOKWIN	-0.1266628
-4.329257	IBIOKWMA	-0.1266628
-4.329257	IBISA	-0.1266628
-3.705222	IBISAM	-0.1964486
-3.437013	IBITEIN	-0.2050148
-4.329257	IBITEINBIA	-0.1266628
-3.947228	IBITEINME	-0.1964486
-4.150996	IBIYE	-0.1266628
-3.809582	IBO	-0.1779231
-4.150996	IBOMA	-0.1266628
-4.329257	IBOMAME	-0.1266628
-4.150996	IBOME	-0.1266628
-2.788105	IBU	-0.2216635
-4.329257	IBUBALABALAMARI	-0.1266628
-4.329257	IBUBELE	-0.1266628
-4.329257	IBUBELEME	-0.1266629
-4.329257	IBUFUKAMA	-0.1266628
-4.329257	IBUINI	-0.1266628
-4.329257	IBUO	-0.1266628
-4.329257	IDA	-0.1266628
-4.329257	IDEA	-0.1266628
-3.550734	IDERI	-0.1487019
-4.329257	IDERIARI	-0.1266628
-4.329257	IDERIINA	-0.1266628
-3.705222	IDERIMA	-0.1601555
-3.947228	IDERIMABIA	-0.2733453
-4.477014	IDERIMABO
-4.329257	IDERIMENGI	-0.1266628
-4.329257	IDUMJA	-0.1266628
-3.947228	IDUP	-0.1964486
-2.965988	IDUPU	-0.6950263
-4.477014	IEAP
-4.477014	IEAYE
-4.477014	IEDE
-4.477014	IEJUA
-4.477014	IEKOROMA
-4.477014	IEM
-4.477014	IEMA
-4.477014	IEMGB
-4.477014	IEPAK
-4.477014	IER
-4.477014	IEYE
-3.30811	IGA	-0.3241801
-4.329257	IGAGA	-0.1266628
-4.477014	IGAMNIME
-3.550734	IGANI	-0.2927282
-3.947228	IGANIMAME	-0.1671756
-3.947228	IGANIME	-0.1671756
-4.329257	IGANINAME	-0.1266628
-4.477014	IGANUME
-4.329257	IGBANIA	-0.1266628
-3.809582	IGBE	-0.1779231
-4.329257	IGBEMA	-0.1266628
-2.848217	IGBIKI	-0.3452137
-4.329257	IGBIKIKOKOWARI	-0.1266628
-4.329257	IGBIKIMA	-0.1266628
-4.477014	IGBIKIOCHO
-4.329257	IGBIO	-0.1266628
-3.490162	IGBO	-0.5839586
-4.329257	IGBOMA	-0.1266628
-4.329257	IGINIAPU	-0.1266628
-4.329257	IGNOI	-0.1266628
-4.329257	IGNOKON	-0.1266628
-4.329257	IGNONIAPU	-0.1266629
-3.550734	IGONI	-0.2040154
-3.809582	IGONIAPU	-0.2607873
-4.329257	IGONIBAN	-0.1266628
-4.150996	IGONIBO	-0.2360536
-4.329257	IGONIKON	-0.1266628
-4.329257	IGONIWARI	-0.1266628
-4.329257	IGURUBE	-0.1266628
-3.490162	IGWEIN	-0.2404657
-4.477014	IGWEINA
-4.150996	IGWEINBIA	-0.2360535
-4.329257	IGWEINBO	-0.1266628
-4.329257	IGWEINMA	-0.1266628
-4.329257	IGWEINMARI	-0.1266628
-4.329257	IHA	-0.1266628
-4.329257	IIA	-0.1266628
-3.621144	IIN	-0.2404657
-4.329257	IJIABKORO	-0.1266629
-3.705222	IJIPT	-0.1601555
-3.809582	IJIRA	-0.1964486
-4.329257	IJIRIJI	-0.1266628
-4.329257	IKAINBI	-0.1266628
-4.329257	IKANKOROAPU	-0.1266628
-3.809582	IKASI	-0.1671755
-4.329257	IKASIA	-0.1266628
-4.150996	IKASIE	-0.1266628
-4.329257	IKASIEMA	-0.1266628
-4.150996	IKASIME	-0.1266628
-4.329257	IKEASUN	-0.1266628
-4.329257	IKEL	-0.1266628
-4.150996	IKELI	-0.1266628
-3.621144	IKELIAPU	-0.2878008
-3.947228	IKENAMBULO	-0.2733453
-4.329257	IKI	-0.1266628
-4.150996	IKIA	-0.1266628
-3.389665	IKIABO	-0.1874034
-4.329257	IKIABOKE	-0.1266629
-3.30811	IKIAN	-0.2478353
-3.239475	IKIANKORO	-0.2487186
-4.329257	IKIANKOROABE	-0.1266628
-3.08155	IKIANKOROAPU	-0.8812916
-4.477014	IKIANKOROB
-4.477014	IKIANKOROBE
-3.208838	IKIANKOROBO	-0.3953966
-4.329257	IKIANKOROBOKE	-0.1266628
-4.329257	IKIANKOROME	-0.1266628
-4.329257	IKIAPI	-0.1266628
-3.437013	IKIAPU	-0.3143498
-4.477014	IKIBA
-4.329257	IKIBIA	-0.1266628
-4.477014	IKIM
-4.329257	IKIME	-0.1266628
-4.477014	IKIP
-4.329257	IKIRIAPU	-0.1266628
-4.477014	IKIT
-4.329257	IKJAN	-0.1266628
-4.329257	IKO	-0.1266628
-3.389665	IKOLI	-0.3547476
-3.809582	IKOLIBO	-0.1779231
-4.329257	IKOLIKOLI	-0.1266628
-4.329257	IKOLIMA	-0.1266628
-3.705222	IKOLIWARI	-0.495194
-4.329257	IKOLIWARIS	-0.1266628
-4.329257	IKOLO	-0.1266628
-4.329257	IKOWARI	-0.1266628
-3.437013	IKPANGI	-0.3009254
-4.329257	IKPANGIMA	-0.1266628
-4.477014	IKPO
-4.329257	IKPOANGIMA	-0.1266628
-4.329257	IKPU	-0.1266628
-3.947228	IKPUKUMA	-0.1964486
-3.621144	IKU	-0.218636
-4.329257	IKUAYE	-0.1266628
-4.329257	IKUBU	-0.1266628
-4.329257	IKUKE	-0.1266629
-3.947228	IKULA	-0.1964486
-4.329257	IKULELE	-0.1266628
-4.329257	IKUTEIN	-0.1266628
-4.329257	ILA	-0.1266628
-3.389665	ILAIJA	-0.5096495
-4.150996	ILAIJI	-0.2360536
-4.329257	ILAISHA	-0.1266628
-4.329257	ILAJA	-0.1266628
-4.329257	ILARJA	-0.1266628
-4.329257	ILO	-0.1266628
-4.329257	ILOIGBIKI	-0.1266628
-4.150996	ILOLIBIA	-0.2360536
-4.329257	ILOLIMA	-0.1266628
-4.329257	IMA	-0.1266628
-4.477014	IMABIA
-3.809582	IMBIRE	-0.398284
-4.329257	IMBURE	-0.1266628
-4.329257	IMEDA	-0.1266628
-4.150996	IMGBE	-0.2360536
-4.329257	IMGBELE	-0.1266628
-3.947228	IMGBEPELE	-0.1266628
-4.477014	IMIMABIANYO
-4.329257	IMIMAYE	-0.1266628
-4.329257	IMIRE	-0.1266628
-4.329257	IMN	-0.1266628
-4.329257	IMO	-0.1266628
-4.329257	IMUKU	-0.1266628
-4.329257	INA	-0.1266628
-4.329257	INAPU	-0.1266628
-4.329257	INDEA	-0.1266629
-2.788105	INEDA	-0.2414416
-4.329257	INEDABIA	-0.1266628
-4.329257	INEDAKE	-0.1266628
-4.150996	INEDAS	-0.1266628
-4.329257	INEDIA	-0.1266628
-4.477014	INEIN
-3.705222	INEMA	-0.1835838
-3.947228	INGO	-0.1266628
-4.329257	INGOKONMA	-0.1266629
-1.995974	INI	-0.3437874
-2.364116	INIA	-0.3391334
-3.947228	INIABU	-0.1266628
-4.477014	INIB
-4.329257	INIBJO	-0.1266628
-2.564829	INIBO	-0.2361437
-4.329257	INIBOBU	-0.1266628
-4.329257	INIDUBA	-0.1266628
-4.329257	INIIBAPU	-0.1266628
-4.329257	INIJIBAPU	-0.1266628
-4.329257	INIK	-0.1266628
-4.329257	INIKA	-0.1266629
-3.947228	INIKI	-0.1266628
-4.329257	INIKIAPU	-0.1266628
-4.477014	INIKIKON
-4.329257	INIKIMASAM	-0.1266628
-4.329257	INIMA	-0.1266628
-3.947228	INIME	-0.1671755
-3.039519	INIMGBA	-0.2443246
-4.329257	ININACHIN	-0.1266628
-4.329257	INIS	-0.1266628
-3.30811	INJI	-0.3762439
-4.329257	INJIBAPA	-0.1266628
-4.150996	INJIBAPU	-0.1266628
-3.947228	INJIMA	-0.1964486
-3.947228	INO	-0.2733453
-4.329257	INSENS	-0.1266628
-3.705222	INUMA	-0.1671756
-4.329257	INUMAKA	-0.1266628
-4.329257	INUMAKE	-0.1266628
-4.329257	INWO	-0.1266628
-4.477014	INY
-4.329257	INYANAYA	-0.1266628
-3.490162	INYANYA	-0.2927282
-4.329257	INYE	-0.1266628
-4.329257	INYENGI	-0.1266628
-3.128089	INYO	-0.2545173
-4.329257	INYOBUOFORIKA	-0.1266628
-4.329257	INYOFA	-0.1266628
-4.329257	INYOSAA	-0.1266628
-3.809582	INYOSAR	-0.398284
-3.128089	INYOSARA	-0.6722146
-4.150996	INYOSARABIA	-0.1266628
-4.329257	INYOSARABIAN	-0.1266628
-4.329257	INYOSARAME	-0.1266628
-4.329257	IOAMA	-0.1266628
-4.477014	ION
-3.437013	IPIAMGBA	-0.3366372
-4.329257	IPIRIME	-0.1266628
-4.329257	IPKI	-0.1266628
-4.329257	IPO	-0.1266629
-4.477014	IREMENI
-3.705222	IREMENIAWO	-0.495194
-2.514185	IRI	-0.3970395
-4.329257	IRIA	-0.1266628
-4.329257	IRIABA	-0.1266628
-4.329257	IRIABIA	-0.1266628
-4.477014	IRIAMA
-4.329257	IRIAMAME	-0.1266628
-4.329257	IRIAME	-0.1266628
-4.329257	IRIEMENIAWO	-0.1266628
-4.329257	IRIEMENITOKU	-0.1266628
-4.329257	IRIKE	-0.1266628
-3.621144	IRIMA	-0.2850621
-4.329257	IRIMABE	-0.1266629
-4.477014	IRIMAM
-4.329257	IRIMAME	-0.1266629
-4.329257	IRIME	-0.1266628
-4.329257	IRIMNA	-0.1266628
-4.329257	IRIN	-0.1266628
-4.329257	IRINA	-0.1266628
-4.329257	IRINGI	-0.1266628
-4.329257	IRISI	-0.1266628
-3.947228	IRO	-0.1964486
-4.329257	IROBO	-0.1266628
-4.150996	IRORO	-0.1266628
-3.039519	IRU	-0.3739732
-3.208838	IRUA	-0.4523798
-4.329257	IRUAPAKAPAKA	-0.1266628
-4.329257	IRUAPAKPAK	-0.1266628
-4.329257	IRUASOSO	-0.1266628
-4.329257	IRUBAPU	-0.1266628
-4.329257	IRUBU	-0.1266628
-4.329257	IRUNA	-0.1266628
-3.389665	IRUO	-0.2415757
-4.329257	IRUOAYE	-0.1266628
-4.329257	IRUOBO	-0.1266628
-4.150996	IRUOKON	-0.1266628
-4.329257	IRUORUO	-0.1266628
-4.329257	ISAKA	-0.1266628
-4.329257	ISE	-0.1266628
-3.947228	ISEME	-0.1779231
-2.983237	ISI	-0.2952387
-4.477014	ISIAP
-3.153373	ISIAPU	-0.8601651
-4.329257	ISIAPY	-0.1266628
-3.550734	ISIBO	-0.3699318
-4.329257	ISKAIOT	-0.1266628
-3.809582	ISKARIOT	-0.2086195
-4.329257	ISUM	-0.1266628
-3.550734	ISUN	-0.1633324
-4.329257	ISUNBIA	-0.1266628
-4.329257	ISUNME	-0.1266628
-4.329257	ITUAKPOIN	-0.1266628
-4.329257	ITUO	-0.1266628
-4.329257	ITURIA	-0.1266628
-4.329257	IVALA	-0.1266628
-4.329257	IWERIBO	-0.1266628
-3.104197	IWO	-0.2429335
-3.30811	IWOAMA	-0.3299752
-4.329257	IWOAMAMA	-0.1266628
-4.329257	IWOAYE	-0.1266628
-3.705222	IWOMA	-0.1266628
-4.329257	IWOSOMUN	-0.1266628
-2.413327	IYA	-0.3432866
-4.477014	IYAYE
-4.329257	IYAYEKE	-0.1266628
-3.947228	IYE	-0.1266628
-4.329257	IZREI	-0.1266628
-3.153373	IZREL	-0.465974
-3.705222	JAIROS	-0.3286861
-4.329257	JANA	-0.1266628
-4.329257	JANI	-0.1266628
-4.150996	JEHOSIAFAT	-0.2360536
-3.550734	JEKOB	-0.3699318
-4.329257	JEKOBO	-0.1266628
-4.329257	JEKONAYA	-0.1266628
-3.490162	JEMS	-0.4058727
-4.329257	JERED	-0.1266628
-3.947228	JERIKO	-0.1779231
-4.329257	JERIMAY	-0.1266628
-4.150996	JERIMAYA	-0.2360536
-4.329257	JEROAM	-0.1266628
-4.329257	JERSALEM	-0.1266628
-4.329257	JERUMSALEM	-0.1266628
-4.477014	JERUSAL
-2.983237	JERUSALEM	-0.3630695
-4.329257	JESI	-0.1266628
-4.477014	JEZ
-4.329257	JIASA	-0.1266629
-4.477014	JIBNBO
-4.477014	JIE
-4.329257	JIIZOS	-0.1266628
-3.705222	JIKE	-0.1835838
-4.150996	JIKEARI	-0.1266628
-4.329257	JIKEBIA	-0.1266628
-4.150996	JIKEKE	-0.1266628
-4.329257	JIKEME	-0.1266628
-4.329257	JIKI	-0.1266628
-2.835511	JIN	-0.2794793
-4.477014	JINAM
-4.329257	JINAME	-0.1266628
-4.477014	JINB
-3.272438	JINBO	-0.1789821
-3.705222	JINE	-0.1719194
-4.477014	JINEAJINEA
-4.329257	JINEAME	-0.1266628
-4.329257	JINEAYE	-0.1266628
-4.150996	JINEBIA	-0.1266628
-4.329257	JINEBO	-0.1266628
-4.150996	JINEME	-0.1964486
-4.329257	JINEYE	-0.1266628
-4.477014	JINO
-4.477014	JINS
-4.150996	JINSE	-0.1964486
-3.809582	JINSEAPU	-0.2086195
-4.329257	JINSIKI	-0.1266628
-3.389665	JINYE	-0.2952131
-4.329257	JINYEKA	-0.1266628
-4.477014	JIOS
-4.329257	JIOZS	-0.1266628
-4.150996	JISOS	-0.2360536
-4.477014	JIZ
-4.329257	JIZO	-0.1266628
-4.329257	JIZOA	-0.1266628
-2.183372	JIZOS	-1.011921
-4.150996	JIZOSE	-0.2360536
-4.329257	JIZOSS	-0.1266628
-4.329257	JIZOX	-0.1266628
-4.329257	JIZS	-0.1266628
-4.329257	JNI	-0.1266628
-4.150996	JOB	-0.1266629
-4.329257	JODA	-0.1266628
-3.490162	JODAN	-0.495194
-4.329257	JODAUN	-0.1266628
-4.329257	JOKOMA	-0.1266628
-4.329257	JOKUM	-0.1266628
-3.947228	JOKUMA	-0.1601555
-4.329257	JOMN	-0.1266628
-2.607107	JON	-0.4214455
-3.621144	JONA	-0.5743753
-4.329257	JONAM	-0.1266628
-4.329257	JORAM	-0.1266628
-4.329257	JORIM	-0.1266628
-4.150996	JOSAYA	-0.2360536
-3.180221	JOSEF	-0.466157
-4.329257	JOSEK	-0.1266628
-4.150996	JOTAM	-0.2360536
-4.329257	JOZOS	-0.1266628
-4.329257	JUA	-0.1266628
-4.477014	JUABO
-4.477014	JUAP
-3.08155	JUAPU	-0.5389951
-4.329257	JUBO	-0.1266628
-4.329257	JUBU	-0.1266629
-4.329257	JUDA	-0.1266628
-3.30811	JUDAS	-0.4087195
-3.346976	JUDIA	-0.2300483
-4.329257	JUKO	-0.1266628
-3.947228	JUKURU	-0.2733453
-4.329257	JUME	-0.1266628
-4.329257	JUN	-0.1266628
-4.329257	JUNA	-0.1266628
-4.150996	JUO	-0.1266628
-4.150996	JURO	-0.1266628
-4.329257	JUROMA	-0.1266628
-4.329257	JZOS	-0.1266628
-4.329257	KABE	-0.1266628
-3.104197	KABO	-0.4910124
-3.809582	KABOB	-0.398284
-4.329257	KABOMA	-0.1266628
-4.329257	KABU	-0.1266628
-3.550734	KAIN	-0.1835838
-4.329257	KAINBIA	-0.1266628
-3.621144	KAINBO	-0.2551679
-4.329257	KAINBOAPU	-0.1266628
-3.947228	KAINBOBIA	-0.1266628
-4.329257	KAINBOKA	-0.1266628
-4.329257	KAINBOKAPU	-0.1266628
-3.947228	KAINBOKE	-0.2360535
-4.477014	KAINBOYE
-4.329257	KAKABIA	-0.1266628
-4.329257	KAKIBA	-0.1266628
-3.30811	KALA	-0.2656434
-4.329257	KALATOKU	-0.1266628
-3.346976	KALAYE	-0.2216588
-3.437013	KAN	-0.2728886
-3.809582	KANA	-0.1779231
-4.477014	KANAF
-4.150996	KANAKAN	-0.1266628
-3.208838	KANAKANA	-0.5096495
-4.329257	KANAKANABE	-0.1266629
-4.329257	KANAKANABIA	-0.1266628
-4.329257	KANAKANAKE	-0.1266629
-4.329257	KANAKANBIA	-0.1266628
-3.705222	KANBIA	-0.1964486
-4.329257	KANBO	-0.1266628
-4.329257	KANGE	-0.1266628
-4.329257	KANKANME	-0.1266628
-4.329257	KANKE	-0.1266629
-4.329257	KANMA	-0.1266628
-4.329257	KANSARABIA	-0.1266628
-4.477014	KANSIN
-4.150996	KANSO	-0.2360536
-4.329257	KANU	-0.1266628
-4.150996	KANYE	-0.1266628
-4.329257	KAO	-0.1266628
-4.477014	KAPANI
-4.329257	KAPANIO	-0.1266628
-3.621144	KAPANIOM	-0.1874034
-4.329257	KAPARIOM	-0.1266628
-4.150996	KARA	-0.1266628
-4.150996	KARABIA	-0.1266628
-4.329257	KARAGBASI	-0.1266628
-4.329257	KARAGBASIBIA	-0.1266628
-4.329257	KARAIST	-0.1266628
-4.329257	KARAKAR	-0.1266628
-3.272438	KARAKARA	-0.3016103
-4.329257	KARAKARABARABU	-0.1266628
-4.329257	KARAKARABIA	-0.1266628
-4.329257	KARAKARABO	-0.1266628
-3.239475	KARAKARAMA	-0.280663
-4.150996	KARAKARAMABIA	-0.1266628
-3.947228	KARAKARAMAME	-0.1964486
-4.150996	KARAKARAMASAM	-0.1266628
-3.809582	KARAKARAME	-0.1552098
-4.329257	KARAKARAPU	-0.1266628
-4.150996	KARAKARASAM	-0.2360535
-3.346976	KARAKARAYE	-0.3123593
-4.477014	KARAM
-3.389665	KARAMA	-0.1731853
-4.150996	KARAMABIA	-0.1266628
-4.329257	KARAMAHIA	-0.1266629
-4.329257	KARAMAKA	-0.1266628
-4.329257	KARAMAKE	-0.1266629
-4.150996	KARAMASAM	-0.1266628
-4.329257	KARAMAYE	-0.1266628
-4.329257	KARAME	-0.1266628
-4.329257	KARASA	-0.1266629
-4.329257	KARASAM	-0.1266629
-4.329257	KARI	-0.1266628
-4.150996	KARIFI	-0.1266628
-4.329257	KARIFIABE	-0.1266628
-4.329257	KARIFIARI	-0.1266628
-4.150996	KARIFIME	-0.1266628
-4.150996	KARIFISAM	-0.2360535
-4.329257	KASBO	-0.1266628
-3.705222	KAYAFAS	-0.1835838
-4.329257	KBO	-0.1266628
-4.329257	KEKEMA	-0.1266628
-3.550734	KELE	-0.1430864
-4.329257	KELEKELEMA	-0.1266628
-3.346976	KELEMA	-0.2205562
-4.329257	KELEMABE	-0.1266628
-3.809582	KELEMABIA	-0.1266628
-4.477014	KELEMAM
-3.437013	KELEMAME	-0.3847108
-4.150996	KELEMANE	-0.2360535
-4.329257	KELEMASAM	-0.1266628
-4.477014	KELEMAYE
-4.329257	KELMA	-0.1266628
-4.329257	KEME	-0.1266628
-3.809582	KENA	-0.1671756
-4.329257	KENAN	-0.1266628
-4.329257	KENANA	-0.1266628
-2.983237	KENGE	-0.4234634
-4.150996	KENGEKE	-0.1964486
-4.329257	KENGW	-0.1266628
-4.329257	KENI	-0.1266628
-4.329257	KENMGE	-0.1266628
-4.329257	KEPKISAM	-0.1266629
-3.947228	KERENI	-0.1266628
-4.150996	KERENIBIPI	-0.2360536
-4.329257	KERENIMA	-0.1266629
-4.329257	KERENIME	-0.1266629
-4.329257	KIAN	-0.1266628
-4.477014	KIARI
-4.477014	KIBIA
-4.329257	KIDRON	-0.1266628
-4.329257	KIEMSAM	-0.1266629
-3.621144	KIEN	-0.2415757
-4.329257	KIENBIA	-0.1266628
-3.947228	KIENBIPI	-0.1671756
-4.329257	KIENBOKA	-0.1266628
-4.150996	KIENKA	-0.1964486
-3.705222	KIENMA	-0.2878008
-4.329257	KIFAS	-0.1266629
-3.947228	KIKA	-0.2733453
-4.150996	KIKAME	-0.1266628
-4.329257	KIKAYE	-0.1266628
-4.150996	KIKE	-0.2360536
-4.329257	KIKEBIA	-0.1266628
-4.329257	KIKEME	-0.1266628
-3.809582	KIKI	-0.2360535
-3.621144	KIKICHUA	-0.1601555
-4.329257	KIKICHUAYE	-0.1266628
-4.329257	KIKIKE	-0.1266629
-3.705222	KIKIMA	-0.2162826
-4.329257	KIKINA	-0.1266628
-4.329257	KIKINAME	-0.1266628
-4.329257	KIKINME	-0.1266628
-4.329257	KILOPAS	-0.1266628
-4.329257	KIMA	-0.1266629
-4.329257	KIN	-0.1266628
-4.329257	KINEME	-0.1266628
-4.150996	KINI	-0.1266629
-4.477014	KINYE
-2.823165	KIRI	-0.3557535
-4.477014	KIRIK
-4.329257	KIRIKIIRI	-0.1266628
-4.329257	KIRIKINI	-0.1266628
-3.019937	KIRIKIRI	-0.2202899
-4.150996	KIRIKJNI	-0.1266628
-3.947228	KIRIKON	-0.1779231
-3.809582	KIRIMA	-0.1779231
-4.329257	KIRIYE	-0.1266629
-4.329257	KIRKIRI	-0.1266628
-4.477014	KIT
-4.329257	KIVAI	-0.1266628
-3.947228	KIZOS	-0.2733453
-4.329257	KKELEMABIA	-0.1266629
-4.329257	KLAYE	-0.1266628
-4.329257	KLOPAS	-0.1266628
-4.329257	KNI	-0.1266628
-4.150996	KNOWLEDGE	-0.1266628
-4.477014	KOAP
-4.329257	KOASIMABIA	-0.1266629
-4.150996	KOBIRI	-0.1266628
-4.150996	KOBIRIBIA	-0.1266628
-4.329257	KOBIRIIMA	-0.1266628
-4.329257	KOBIRIKA	-0.1266628
-3.272438	KOBIRIMA	-0.287827
-3.705222	KOBIRIMABIA	-0.1964486
-3.621144	KOBIRIMAME	-0.2162826
-4.150996	KOBIRIMAPU	-0.1266628
-4.477014	KOBIRIMARIYE
-3.389665	KOBO	-0.3510685
-4.329257	KOHIRIRNA	-0.1266628
-4.329257	KOKIMAYE	-0.1266628
-3.346976	KOKO	-0.2541708
-4.329257	KOKOABE	-0.1266629
-4.150996	KOKOBIA	-0.1964486
-4.329257	KOKOKA	-0.1266628
-4.329257	KOKOKE	-0.1266629
-4.329257	KOKOKMA	-0.1266628
-4.329257	KOKOM	-0.1266628
-3.128089	KOKOMA	-0.185014
-4.329257	KOKOMANYE	-0.1266628
-4.329257	KOKOMAY	-0.1266628
-3.019937	KOKOMAYE	-0.4593707
-4.329257	KOKOMAYEKE	-0.1266628
-4.329257	KOKOMAYEM	-0.1266628
-4.477014	KOKOMAYEMIEBO
-3.809582	KOKOME	-0.2086195
-4.150996	KOLOKOLO	-0.1266628
-4.329257	KOM	-0.1266628
-4.329257	KOMBO	-0.1266628
-4.477014	KOMBOME
-4.329257	KOMOBO	-0.1266628
-2.888732	KON	-0.3261915
-3.809582	KONBIA	-0.1552098
-3.809582	KONBO	-0.1601555
-3.705222	KONGO	-0.1835838
-4.329257	KONI	-0.1266628
-4.329257	KONJU	-0.1266628
-3.947228	KONKA	-0.1266628
-4.329257	KONKE	-0.1266629
-4.150996	KONKON	-0.1266628
-4.329257	KONKONMA	-0.1266628
-4.329257	KONKONME	-0.1266628
-4.329257	KONM	-0.1266628
-4.150996	KONMA	-0.1266628
-3.272438	KONME	-0.2349132
-4.150996	KONSA	-0.1266628
-4.329257	KONSAM	-0.1266628
-4.329257	KONUBIA	-0.1266628
-4.329257	KONWARI	-0.1266628
-4.329257	KOOMASO	-0.1266628
-4.329257	KORAZIN	-0.1266629
-3.490162	KORI	-0.2086195
-4.329257	KORIARI	-0.1266628
-4.329257	KORIBO	-0.1266628
-3.621144	KORIFINI	-0.340292
-4.329257	KORIKIA	-0.1266628
-4.329257	KORIME	-0.1266629
-3.947228	KORINTAPU	-0.1964486
-4.329257	KORISIME	-0.1266628
-2.983237	KORO	-0.2448838
-4.329257	KOROARI	-0.1266628
-4.329257	KOROAYE	-0.1266628
-4.329257	KOROBARA	-0.1266628
-3.705222	KOROBIA	-0.1266628
-3.550734	KOROBO	-0.161356
-4.329257	KOROBOARI	-0.1266628
-4.150996	KOROBUCHAYE	-0.2360536
-4.150996	KOROBUCHUAYE	-0.1266628
-4.329257	KOROKA	-0.1266628
-4.329257	KOROKOROAB	-0.1266629
-4.477014	KOROM
-2.735311	KOROMA	-0.3254026
-4.329257	KOROMABA	-0.1266629
-4.329257	KOROMABE	-0.1266628
-3.490162	KOROMABIA	-0.1766715
-4.329257	KOROMAE	-0.1266628
-4.329257	KOROMAFI	-0.1266628
-4.329257	KOROMAFISA	-0.1266628
-4.329257	KOROMAKA	-0.1266628
-4.150996	KOROMAKE	-0.2360535
-4.329257	KOROMAM	-0.1266629
-4.329257	KOROMAMA	-0.1266628
-3.30811	KOROMAME	-0.3225629
-4.329257	KOROMANIE	-0.1266628
-3.809582	KOROMARI	-0.2118599
-4.329257	KOROMARIYE	-0.1266628
-4.329257	KOROMARNE	-0.1266628
-4.329257	KOROMAS	-0.1266628
-4.150996	KOROMASA	-0.1266628
-4.329257	KOROMASAM	-0.1266629
-3.550734	KOROMASO	-0.2540674
-4.329257	KOROMASOARI	-0.1266628
-4.329257	KOROMASOBIA	-0.1266628
-4.329257	KOROMASOBU	-0.1266628
-3.809582	KOROMASOME	-0.3372234
-4.477014	KOROMASOYE
-4.150996	KOROMAYE	-0.1266628
-3.30811	KOROME	-0.3221147
-4.329257	KOROMNA	-0.1266629
-4.329257	KOROMO	-0.1266628
-4.329257	KORORMABIA	-0.1266629
-4.329257	KOROSAM	-0.1266629
-4.329257	KOROYE	-0.1266628
-3.621144	KORU	-0.2007563
-4.329257	KORUABE	-0.1266628
-3.947228	KORUAPU	-0.2086195
-4.329257	KORUARI	-0.1266628
-4.329257	KORUBARI	-0.1266628
-4.329257	KORUBIA	-0.1266628
-4.150996	KORUBO	-0.2360536
-4.329257	KORUKUBU	-0.1266628
-4.329257	KORUME	-0.1266629
-4.329257	KOSAM	-0.1266628
-4.329257	KOSIBIA	-0.1266628
-4.329257	KOSIMA	-0.1266628
-3.947228	KOSIMABIA	-0.1964486
-4.329257	KOSIMASAM	-0.1266628
-4.329257	KPAA	-0.1266628
-4.329257	KPAINMA	-0.1266628
-4.329257	KPAINMAME	-0.1266628
-4.329257	KPAKIMA	-0.1266628
-4.329257	KPALAKPALA	-0.1266628
-4.329257	KPALAKPALAME	-0.1266628
-3.947228	KPAPU	-0.1964486
-4.329257	KPATU	-0.1266628
-3.809582	KPEKI	-0.1737579
-4.329257	KPEKIARI	-0.1266628
-4.329257	KPEKIM	-0.1266628
-3.809582	KPEKIMA	-0.1874034
-4.329257	KPEKIMAME	-0.1266628
-4.329257	KPEKIMARI	-0.1266628
-4.329257	KPEKIME	-0.1266629
-3.947228	KPEKISAM	-0.1938405
-4.329257	KPEKITEIN	-0.1266628
-4.329257	KPEMAME	-0.1266628
-4.329257	KPEME	-0.1266628
-3.705222	KPEREKI	-0.3009254
-4.329257	KPEREKIME	-0.1266628
-4.329257	KPIKI	-0.1266628
-3.104197	KPO	-0.4024043
-4.329257	KPOIN	-0.1266628
-3.947228	KPOINKPOIN	-0.2733453
-4.329257	KPOJISIMEME	-0.1266629
-4.329257	KPOKPO	-0.1266628
-4.329257	KPOKPONIMA	-0.1266628
-4.150996	KPOMA	-0.1266628
-4.329257	KPONIJI	-0.1266629
-4.329257	KPONIJISIME	-0.1266628
-4.329257	KPONISIME	-0.1266628
-3.208838	KPONJI	-0.586736
-4.329257	KPONKI	-0.1266628
-4.329257	KPOSA	-0.1266628
-4.329257	KPOSAM	-0.1266628
-3.947228	KPOTI	-0.1779231
-4.329257	KPOTIBIA	-0.1266628
-4.150996	KPOTIME	-0.1779231
-3.809582	KPOTO	-0.1266628
-4.329257	KPRO	-0.1266628
-4.329257	KPRUKPRUAPU	-0.1266628
-4.150996	KPULUKU	-0.1266628
-4.329257	KPULUMA	-0.1266628
-4.329257	KRAIS	-0.1266628
-4.329257	KRAISI	-0.1266628
-3.272438	KRAIST	-0.514577
-4.329257	KUABOROMA	-0.1266628
-3.153373	KUBIE	-0.3204767
-4.329257	KUBIEKUROMA	-0.1266628
-4.329257	KUBIEMA	-0.1266628
-4.329257	KUBIEMBOLU	-0.1266628
-4.477014	KUBIEMGB
-3.621144	KUBIEMGBOLU	-0.28002
-4.329257	KUBOBIA	-0.1266628
-4.477014	KUBU
-4.329257	KUBUYE	-0.1266628
-4.329257	KUEO	-0.1266628
-4.150996	KUIE	-0.2360536
-4.329257	KUKO	-0.1266628
-4.329257	KUKU	-0.1266628
-4.329257	KUKUKE	-0.1266629
-4.150996	KUKURO	-0.1266628
-4.329257	KULIE	-0.1266628
-4.329257	KULOMA	-0.1266628
-3.060026	KULUMA	-0.2542543
-4.329257	KULUMABIA	-0.1266628
-4.329257	KUMA	-0.1266628
-4.329257	KUMBIA	-0.1266628
-4.329257	KUMBO	-0.1266628
-3.550734	KUN	-0.2004604
-4.150996	KUNBIA	-0.1266629
-4.150996	KUNKE	-0.2360535
-4.329257	KUNMA	-0.1266628
-3.947228	KUNME	-0.1779231
-3.705222	KUNO	-0.2086195
-4.329257	KUNOB	-0.1266628
-4.329257	KUNOKA	-0.1266628
-4.150996	KUNOMA	-0.2360536
-3.705222	KUNU	-0.3187793
-4.329257	KUNUMA	-0.1266628
-4.329257	KUPIEMGBOLU	-0.1266628
-4.477014	KUR
-3.30811	KURA	-0.2582463
-4.329257	KURAKA	-0.1266628
-4.150996	KURAKE	-0.1779231
-4.329257	KURAMA	-0.1266628
-2.766212	KURO	-0.3773674
-4.329257	KUROAPU	-0.1266628
-3.809582	KUROBARA	-0.2317761
-4.150996	KUROBO	-0.1266628
-4.150996	KUROKON	-0.1266628
-4.329257	KUROM	-0.1266628
-3.30811	KUROMA	-0.1877033
-4.329257	KUROMABIA	-0.1266628
-4.329257	KUROMAKE	-0.1266629
-4.150996	KUROMAME	-0.1266628
-4.150996	KUROMAMGBA	-0.1964486
-4.150996	KUROME	-0.1964486
-4.329257	KURONYANABO	-0.1266628
-4.329257	KUROPIRI	-0.1266628
-4.329257	KUROPIRIME	-0.1266628
-4.329257	KUROPIRISAM	-0.1266628
-4.329257	KUROPIRIYE	-0.1266628
-3.809582	KUROTEIN	-0.1671756
-3.809582	KURUKURU	-0.1779231
-4.329257	KURUKURUYEBIRIAPU	-0.1266628
-4.329257	KURUMU	-0.1266628
-3.621144	KURURU	-0.3187793
-4.329257	KURURUABE	-0.1266628
-4.329257	KURURUAPU	-0.1266628
-4.150996	KURURUBIA	-0.1266628
-4.329257	KURURUMAN	-0.1266629
-4.329257	KUZA	-0.1266628
-4.329257	KWA	-0.1266628
-4.477014	KWAN
-4.477014	KWANI
-4.477014	KWEIN
-4.477014	KWEINA
-4.150996	KWEINMA	-0.1964486
-4.329257	KWIRINIOS	-0.1266628
-3.947228	LAA	-0.1266628
-3.947228	LABARA	-0.1779231
-3.346976	LABIA	-0.2446157
-4.150996	LABO	-0.1266628
-4.329257	LAEKE	-0.1266629
-4.329257	LAGA	-0.1266628
-4.329257	LAISANIAS	-0.1266628
-4.150996	LAKA	-0.1266628
-3.809582	LAKE	-0.3286861
-4.329257	LALA	-0.1266628
-4.150996	LALAMA	-0.1266628
-4.329257	LALAMAYE	-0.1266628
-4.329257	LALPARA	-0.1266628
-4.477014	LAM
-3.346976	LAMA	-0.2978003
-4.329257	LAMABIA	-0.1266628
-4.329257	LAMAEKE	-0.1266629
-4.150996	LAMAKE	-0.1266628
-4.329257	LAMALAMA	-0.1266628
-4.477014	LAMAM
-3.389665	LAMAME	-0.3436979
-4.329257	LAMARI	-0.1266628
-4.329257	LAMAS	-0.1266628
-3.389665	LAME	-0.292635
-3.705222	LAOKU	-0.2086195
-4.150996	LASA	-0.1266628
-3.272438	LASAM	-0.2703145
-3.809582	LASIKI	-0.1266628
-4.477014	LASKI
-4.329257	LASOM	-0.1266628
-4.329257	LATIN	-0.1266628
-4.329257	LAYE	-0.1266628
-3.208838	LAZUROS	-0.659166
-4.150996	LEKIRI	-0.1964486
-4.477014	LEKIRIM
-4.329257	LEKIRIME	-0.1266628
-4.329257	LEMEK	-0.1266628
-4.329257	LIKAME	-0.1266628
-4.329257	LIN	-0.1266628
-4.477014	LINEN
-3.809582	LIVAI	-0.1779231
-4.329257	LIVAIAPU	-0.1266628
-3.621144	LOKO	-0.358136
-4.329257	LOKOLOKOKE	-0.1266629
-4.329257	LOKOMA	-0.1266629
-4.329257	LOKOMAKA	-0.1266628
-4.329257	LOKU	-0.1266628
-4.329257	LOKUMA	-0.1266628
-4.150996	LOLIA	-0.2360536
-4.150996	LOLIAMA	-0.1266629
-4.329257	LONME	-0.1266628
-3.947228	LOT	-0.1964486
-4.329257	LUBU	-0.1266628
-3.621144	LUK	-0.1746825
-4.477014	LUKE
-4.477014	LUPUN
-2.949398	MAA	-0.306992
-4.150996	MAAH	-0.1266628
-4.329257	MAAYE	-0.1266628
-4.329257	MAGADAN	-0.1266628
-4.150996	MAGBA	-0.1266628
-4.329257	MAGBOLU	-0.1266628
-3.947228	MAGDALIN	-0.2733453
-4.329257	MAGDELIN	-0.1266628
-4.477014	MAI
-3.239475	MAIN	-0.317925
-4.150996	MAINFASI	-0.1964486
-4.329257	MAJU	-0.1266628
-4.150996	MAK	-0.1266628
-4.329257	MAKE	-0.1266628
-4.150996	MAKUBIE	-0.1266628
-4.329257	MALAKA	-0.1266629
-4.329257	MALKOS	-0.1266629
-4.150996	MAM	-0.1266628
-2.706464	MAMA	-0.2940894
-3.809582	MAMAPU	-0.2086195
-4.329257	MAMAPUKE	-0.1266628
-4.329257	MAME	-0.1266628
-2.599769	MAMGBA	-0.295891
-4.329257	MAMGBO	-0.1266629
-4.329257	MAMUGBA	-0.1266628
-3.621144	MAN	-0.2742745
-3.947228	MANA	-0.1266628
-4.329257	MANAGBA	-0.1266628
-4.150996	MANASI	-0.2360536
-4.477014	MANG
-4.329257	MANGBA	-0.1266628
-3.346976	MANGI	-0.2371195
-4.329257	MANGIBIA	-0.1266628
-4.329257	MANGISO	-0.1266628
-4.329257	MANGISOBIA	-0.1266628
-4.329257	MANGWO	-0.1266628
-3.947228	MAPU	-0.1964486
-4.329257	MARNGBA	-0.1266628
-4.329257	MAS	-0.1266628
-4.329257	MAT	-0.1266628
-3.389665	MATA	-0.4156893
-4.150996	MATAN	-0.2360536
-4.329257	MATAT	-0.1266628
-4.329257	MATATA	-0.1266628
-4.329257	MATATAYAS	-0.1266628
-4.477014	MATHI
-4.477014	MATI
-4.477014	MATIA
-3.550734	MATIO	-0.2071034
-4.477014	MATION
-4.477014	MATTO
-4.477014	MAYE
-4.329257	MBGA	-0.1266628
-4.329257	MBIBILEME	-0.1266628
-4.329257	MBIRE	-0.1266628
-4.477014	MBIREBE
-4.329257	MBIRI	-0.1266628
-4.329257	MBOGIRIGIRI	-0.1266628
-4.477014	MBURA
-4.329257	MBURAMA	-0.1266628
-4.329257	MBURUMBURUABE	-0.1266628
-4.329257	MBURUMBURUMA	-0.1266629
-4.329257	MEGBEINYE	-0.1266628
-4.329257	MEGI	-0.1266628
-4.329257	MEHALALIE	-0.1266628
-4.329257	MELKI	-0.1266628
-4.329257	MEME	-0.1266628
-4.329257	MEMGBA	-0.1266628
-4.329257	MEMIKASE	-0.1266628
-4.329257	MEMIME	-0.1266628
-4.329257	MEMINE	-0.1266628
-4.329257	MENA	-0.1266628
-2.79948	MENGI	-0.4101739
-3.621144	MENGISARA	-0.2271996
-3.705222	MENGISARABO	-0.495194
-4.329257	MENGISARAME	-0.1266629
-4.329257	MENGISE	-0.1266628
-4.150996	MENI	-0.1266628
-4.329257	MENIME	-0.1266628
-4.329257	MENNGI	-0.1266628
-4.329257	MER	-0.1266628
-3.060026	MERI	-0.5652557
-3.153373	MESAYA	-0.7895211
-4.329257	MESAYAPU	-0.1266628
-3.947228	MESI	-0.2360536
-4.477014	MGB
-3.08155	MGBA	-0.2381471
-4.477014	MGBAL
-4.150996	MGBAMGBA	-0.1266628
-4.150996	MGBE	-0.1266628
-3.809582	MGBELE	-0.2317761
-4.329257	MGBELEM	-0.1266628
-4.329257	MGBELEMA	-0.1266628
-4.329257	MGBEPELE	-0.1266628
-4.150996	MGBEPELESIN	-0.2360536
-4.329257	MGBEPELESINSAM	-0.1266629
-4.329257	MGBESCHIN	-0.1266628
-4.329257	MGBESECHIMA	-0.1266628
-3.153373	MGBESECHIN	-0.6721407
-4.329257	MGBESOCHIN	-0.1266628
-4.477014	MGBO
-3.346976	MGBOKU	-0.2366483
-4.329257	MGBOKUO	-0.1266628
-2.983237	MGBOLU	-0.4028621
-4.329257	MGBOLUMA	-0.1266628
-4.329257	MGBOU	-0.1266628
-4.329257	MIA	-0.1266628
-4.329257	MIANG	-0.1266628
-3.08155	MIANGA	-0.2701045
-4.329257	MIANNGA	-0.1266628
-4.150996	MIBE	-0.1266628
-4.150996	MIBIE	-0.1266628
-3.809582	MIBU	-0.1779231
-2.538769	MIE	-0.3367082
-3.947228	MIEABE	-0.1266628
-4.329257	MIEABEI	-0.1266629
-3.809582	MIEAPU	-0.2317761
-3.947228	MIEARI	-0.1702743
-4.329257	MIEARIAPU	-0.1266628
-3.947228	MIEAYE	-0.2733453
-4.150996	MIEBA	-0.1964486
-3.437013	MIEBAKA	-0.5096495
-4.329257	MIEBARA	-0.1266628
-4.329257	MIEBEINMASAM	-0.1266628
-3.019937	MIEBIA	-0.3926144
-3.809582	MIEBO	-0.1671756
-4.329257	MIEFIAFIA	-0.1266628
-3.809582	MIEFIAFIAMA	-0.1266628
-4.477014	MIEFIAFIAMABIA
-4.329257	MIEGBOLOLMA	-0.1266628
-4.329257	MIEGBOLOMA	-0.1266628
-3.947228	MIEIRIMA	-0.1779231
-4.329257	MIEIRIMAME	-0.1266628
-4.329257	MIEIRIMAPU	-0.1266628
-4.329257	MIEIRIMARI	-0.1266628
-4.329257	MIEIRIMASAM	-0.1266628
-4.329257	MIEIRIMASAYE	-0.1266628
-4.329257	MIEIRIMAYE	-0.1266628
-3.705222	MIEKA	-0.2415757
-4.150996	MIEKABO	-0.1266628
-4.329257	MIEKAYE	-0.1266628
-3.947228	MIEKE	-0.1964486
-4.329257	MIEKURAMAKE	-0.1266628
-4.150996	MIEKUROMA	-0.2360536
-4.329257	MIEKUROMABIA	-0.1266628
-4.150996	MIEMA	-0.1266628
-3.346976	MIEME	-0.2757751
-3.437013	MIEMIE	-0.2596414
-4.150996	MIEMIEAYE	-0.2360536
-4.477014	MIEMIEBO
-4.329257	MIEMIEKE	-0.1266629
-4.150996	MIEMIEME	-0.1964486
-3.490162	MIEMIEYE	-0.3581359
-4.477014	MIEOKU
-4.329257	MIEPAKUMA	-0.1266628
-4.329257	MIERE	-0.1266628
-4.150996	MIERIMA	-0.1266629
-4.329257	MIERNE	-0.1266629
-3.705222	MIESA	-0.2878008
-3.550734	MIESAM	-0.2574245
-2.514185	MIESE	-0.408944
-4.150996	MIESO	-0.2360535
-4.329257	MIESOSIKI	-0.1266628
-3.621144	MIEYE	-0.185766
-4.150996	MIGOSE	-0.2360536
-3.705222	MII	-0.2086195
-4.329257	MIIEIRIMAME	-0.1266629
-4.329257	MIINI	-0.1266628
-4.329257	MIINIPA	-0.1266628
-3.947228	MIKE	-0.1964486
-4.329257	MIKIRIKIRI	-0.1266628
-4.150996	MIM	-0.1266628
-3.272438	MIMGBA	-0.2238185
-4.329257	MIMMGBA	-0.1266628
-2.614572	MIN	-0.3597516
-3.001199	MINA	-0.289197
-3.705222	MINABO	-0.2607873
-3.621144	MINABU	-0.1702743
-4.329257	MINABUNA	-0.1266628
-4.329257	MINABUTIMABIA	-0.1266628
-4.329257	MINAME	-0.1266628
-4.329257	MINANAGA	-0.1266628
-4.329257	MINANGA	-0.1266628
-4.329257	MINAPA	-0.1266628
-4.477014	MINAPHU
-3.272438	MINAPU	-0.4101135
-4.329257	MINAYE	-0.1266628
-3.239475	MINE	-0.3413481
-2.933419	MINEA	-0.2747772
-4.329257	MINEADUMO	-0.1266628
-4.329257	MINGBA	-0.1266628
-4.150996	MINI	-0.2360536
-4.329257	MINIME	-0.1266629
-4.150996	MINIMINIMA	-0.1266628
-3.550734	MINYO	-0.1815168
-3.705222	MIO	-0.185766
-2.835511	MIOKU	-0.2852551
-4.329257	MIOKUMI	-0.1266628
-4.329257	MIS	-0.1266628
-4.329257	MIYAWUME	-0.1266629
-4.329257	MJEME	-0.1266629
-4.329257	MJNA	-0.1266628
-4.329257	MMA	-0.1266628
-4.329257	MMANGI	-0.1266628
-4.329257	MMGBA	-0.1266628
-4.329257	MMYO	-0.1266628
-4.329257	MOIKU	-0.1266628
-4.329257	MOLBERI	-0.1266628
-4.329257	MOMO	-0.1266628
-4.150996	MONI	-0.1266628
-3.490162	MONO	-0.3699318
-3.705222	MONOABE	-0.1938405
-3.809582	MONOARI	-0.1671756
-4.329257	MONOBIA	-0.1266628
-4.329257	MONOM	-0.1266629
-4.329257	MONOMER	-0.1266629
-4.329257	MONOSAM	-0.1266628
-3.389665	MONOYE	-0.3423181
-3.809582	MOSTAD	-0.1266628
-4.329257	MOZIZ	-0.1266628
-3.128089	MOZIZI	-0.7408391
-4.150996	MOZZI	-0.1266628
-3.621144	MUABE	-0.1691651
-4.329257	MUAHO	-0.1266628
-3.239475	MUARI	-0.3908084
-4.329257	MUARIYE	-0.1266628
-3.621144	MUBIA	-0.1552098
-4.329257	MUKA	-0.1266628
-4.150996	MUKUMUKUMA	-0.1266628
-3.490162	MUM	-0.1803296
-3.947228	MUMA	-0.1964486
-4.329257	MUMBU	-0.1266628
-2.835511	MUME	-0.3758098
-4.150996	MUMUME	-0.1266628
-2.323756	MUN	-0.2998973
-3.272438	MUNBIA	-0.3143498
-4.150996	MUNE	-0.1266628
-4.150996	MUNKE	-0.1266628
-4.329257	MUNME	-0.1266628
-3.346976	MUNO	-0.4831899
-4.329257	MUNOKU	-0.1266628
-4.329257	MUNUMUNUMA	-0.1266628
-4.477014	MUNYE
-4.150996	MUSA	-0.1266628
-3.947228	MUSAM	-0.1964486
-4.477014	MUYE
-4.477014	MYANAYE
-4.329257	MYOBUFASAPU	-0.1266628
-4.477014	MYOSARA
-3.239475	NAA	-0.2620894
-3.621144	NAABIA	-0.1601555
-3.947228	NAAKE	-0.1964486
-4.329257	NAAM	-0.1266629
-4.329257	NAAMA	-0.1266628
-3.621144	NAAME	-0.3547476
-4.329257	NAANAAKE	-0.1266629
-4.150996	NAANAAME	-0.1266628
-4.329257	NAASA	-0.1266628
-3.550734	NAASAM	-0.3059094
-4.329257	NAASE	-0.1266628
-4.150996	NAAYE	-0.2360536
-3.180221	NAB	-0.6854949
-4.150996	NABIA	-0.2360535
-4.329257	NAD	-0.1266628
-4.150996	NAFTALI	-0.1266628
-4.477014	NAGADA
-4.329257	NAGAI	-0.1266628
-4.477014	NAGBEIN
-4.329257	NAHUM	-0.1266628
-4.329257	NAIRA	-0.1266628
-4.329257	NAKARAK	-0.1266628
-3.809582	NAKARAKA	-0.1601555
-3.039519	NAMA	-0.3957671
-4.329257	NAMABE	-0.1266629
-3.947228	NAMABIA	-0.1266628
-4.329257	NAMABLA	-0.1266628
-4.329257	NAMABO	-0.1266628
-4.329257	NAMAICHUKA	-0.1266628
-4.329257	NAMAMA	-0.1266628
-3.809582	NAMAME	-0.398284
-4.329257	NAMAPU	-0.1266628
-4.329257	NAMAPURA	-0.1266628
-3.705222	NAMBULO	-0.1671755
-3.621144	NAME	-0.2382845
-4.329257	NAMGA	-0.1266628
-4.329257	NAN	-0.1266628
-4.329257	NANA	-0.1266629
-4.150996	NANGA	-0.1266628
-4.329257	NANGABE	-0.1266628
-4.150996	NANGABIA	-0.1266628
-4.329257	NANGAMA	-0.1266628
-3.809582	NANGWO	-0.1671755
-4.329257	NAO	-0.1266628
-3.705222	NAP	-0.2580422
-4.329257	NAPIKIA	-0.1266628
-4.329257	NASIME	-0.1266628
-4.150996	NASON	-0.2360536
-4.477014	NATANI
-4.329257	NATUBURUBIA	-0.1266628
-4.329257	NAYANA	-0.1266628
-4.329257	NAYANABO	-0.1266628
-4.329257	NAYANBIA	-0.1266628
-3.437013	NAZARET	-0.2161351
-4.329257	NAZARETBO	-0.1266628
-3.809582	NDA	-0.1671756
-2.766212	NDE	-0.365712
-4.150996	NDO	-0.1266628
-4.150996	NDONDOARI	-0.2360535
-4.329257	NDUBA	-0.1266628
-4.329257	NEAMAN	-0.1266628
-4.329257	NEHO	-0.1266628
-4.329257	NEIN	-0.1266628
-4.150996	NEME	-0.1266628
-2.918007	NEMI	-0.3383763
-4.329257	NEMIAPU	-0.1266628
-4.329257	NEMIBA	-0.1266628
-3.490162	NEMIBIA	-0.306674
-4.477014	NEMIBO
-4.329257	NEMIE	-0.1266628
-3.490162	NEMIKA	-0.2927282
-4.329257	NEMIKASC	-0.1266628
-3.001199	NEMIKASE	-0.2026888
-4.329257	NEMIKAYE	-0.1266628
-3.550734	NEMIKE	-0.2385123
-4.329257	NEMIKI	-0.1266629
-4.329257	NEMIKIKASE	-0.1266628
-4.477014	NEMIM
-3.30811	NEMIME	-0.3658974
-3.809582	NEMINE	-0.2317761
-4.329257	NEMISA	-0.1266628
-3.705222	NEMISAM	-0.2742745
-4.329257	NEMISKASE	-0.1266628
-4.329257	NENEGI	-0.1266628
-3.272438	NENGI	-0.2687164
-4.329257	NENGIABE	-0.1266629
-4.329257	NENGIAYE	-0.1266628
-4.150996	NENGIBIA	-0.1779231
-4.150996	NENGIBO	-0.1266629
-4.477014	NENGIKA
-3.947228	NENGIKE	-0.1964486
-3.705222	NENGIMA	-0.1671756
-4.329257	NENGIMABIA	-0.1266629
-4.329257	NENGIMAME	-0.1266628
-4.329257	NENGIMASAM	-0.1266629
-3.437013	NENGIME	-0.3621599
-4.329257	NENGMA	-0.1266628
-4.329257	NENGRNE	-0.1266629
-4.329257	NENPI	-0.1266628
-4.329257	NERI	-0.1266628
-4.329257	NETAN	-0.1266628
-4.150996	NGADA	-0.2360536
-4.329257	NGEI	-0.1266628
-4.329257	NGEIFA	-0.1266628
-4.329257	NGERFI	-0.1266628
-3.208838	NGERI	-0.1660033
-4.329257	NGIISI	-0.1266628
-3.705222	NGIRI	-0.2086195
-4.329257	NGIRIME	-0.1266628
-2.983237	NGISI	-0.2612705
-4.329257	NGISIS	-0.1266628
-2.965988	NGO	-0.3327938
-4.150996	NGOKON	-0.1266628
-4.329257	NGSI	-0.1266628
-3.947228	NGWENGWE	-0.2733453
-4.329257	NGYKON	-0.1266628
-4.150996	NIA	-0.1266628
-4.477014	NIE
-4.329257	NIESE	-0.1266628
-4.329257	NIGISI	-0.1266628
-4.477014	NIJIE
-4.329257	NIKIO	-0.1266628
-4.329257	NIKO	-0.1266629
-4.150996	NIKODIMOS	-0.1779231
-4.329257	NIKODIMOSORI	-0.1266628
-3.705222	NIME	-0.2742746
-4.329257	NIMI	-0.1266628
-4.329257	NIN	-0.1266628
-4.150996	NINI	-0.1671756
-4.329257	NINIAPU	-0.1266628
-4.329257	NINIME	-0.1266628
-4.329257	NINIVI	-0.1266629
-4.329257	NINIVIAPU	-0.1266628
-4.477014	NKA
-4.477014	NMA
-4.329257	NNWENIBO	-0.1266628
-4.150996	NNWOSE	-0.1266628
-3.947228	NOA	-0.1964486
-4.150996	NOMINE	-0.1266628
-4.329257	NOMUABE	-0.1266629
-4.329257	NONGAME	-0.1266628
-3.947228	NONJU	-0.2317761
-4.329257	NONJUBIA	-0.1266628
-4.329257	NONJUME	-0.1266629
-2.599769	NOW	-0.2474468
-4.329257	NOWDUKO	-0.1266628
-4.329257	NOWOKIBO	-0.1266628
-4.329257	NOWPOLI	-0.1266628
-4.477014	NTU
-4.329257	NUMA	-0.1266628
-3.437013	NUMBIREOWU	-0.2379651
-4.329257	NUMBRIEONWU	-0.1266628
-3.947228	NUMBURARO	-0.1779231
-4.329257	NUMUA	-0.1266628
-3.621144	NUNGO	-0.1726135
-4.329257	NUNU	-0.1266628
-4.329257	NWANA	-0.1266628
-4.329257	NWANAMA	-0.1266628
-4.477014	NWANANI
-4.477014	NWANANIMABIABE
-4.329257	NWEBGI	-0.1266628
-4.329257	NWEBGIMA	-0.1266628
-4.329257	NWEGI	-0.1266628
-4.329257	NWEGIARI	-0.1266628
-2.903123	NWENGI	-0.2081942
-4.329257	NWENGIA	-0.1266628
-3.809582	NWENGIABE	-0.1779231
-4.329257	NWENGIABIA	-0.1266628
-4.329257	NWENGIABUO	-0.1266628
-3.947228	NWENGIAPU	-0.2733453
-3.809582	NWENGIARI	-0.2102367
-4.477014	NWENGIARIYE
-3.809582	NWENGIBIA	-0.1266628
-4.329257	NWENGIBO	-0.1266628
-4.329257	NWENGIBOLOMA	-0.1266628
-4.329257	NWENGIBOROBIA	-0.1266628
-4.329257	NWENGIBUO	-0.1266628
-4.329257	NWENGII	-0.1266628
-4.329257	NWENGIK	-0.1266628
-4.150996	NWENGIKA	-0.1266628
-3.809582	NWENGIKE	-0.1601555
-3.809582	NWENGIMA	-0.1552098
-4.329257	NWENGIMAMUARI	-0.1266628
-4.329257	NWENGIMAMUN	-0.1266629
-4.329257	NWENGIMAMUNI	-0.1266628
-4.329257	NWENGIMANWENGIMA	-0.1266628
-3.947228	NWENGIME	-0.1266628
-4.150996	NWENGISAM	-0.1964486
-2.965988	NWENI	-0.2827104
-4.477014	NWENIB
-4.329257	NWENIBA	-0.1266628
-3.550734	NWENIBO	-0.2927282
-4.150996	NWENIMGBA	-0.1266628
-4.329257	NWENJ	-0.1266628
-4.329257	NWIOSE	-0.1266628
-1.83318	NWO	-0.3831576
-3.001199	NWOBE	-0.4590199
-4.329257	NWOBEBIA	-0.1266628
-4.329257	NWOCHUA	-0.1266628
-3.490162	NWOFA	-0.2160318
-4.329257	NWOFIA	-0.1266628
-4.329257	NWOS	-0.1266628
-2.308607	NWOSE	-0.2843389
-4.329257	NWOSEBALAFA	-0.1266628
-4.329257	NWOSEEREMENITOTU	-0.1266628
-4.329257	NWOSIME	-0.1266628
-4.150996	NWOSO	-0.1266628
-4.329257	NWOSOBIA	-0.1266628
-4.329257	NWPSE	-0.1266628
-4.329257	NWSE	-0.1266628
-4.329257	NWSO	-0.1266628
-4.329257	NWU	-0.1266628
-4.329257	NYA	-0.1266628
-4.329257	NYAN	-0.1266628
-2.551603	NYANA	-0.3209783
-4.329257	NYANAB	-0.1266628
-4.150996	NYANABERENI	-0.1266628
-4.329257	NYANABI	-0.1266629
-3.180221	NYANABIA	-0.3667619
-2.607107	NYANABO	-0.4239542
-4.329257	NYANABOBIA	-0.1266628
-4.329257	NYANABOS	-0.1266628
-3.437013	NYANAKA	-0.2259009
-4.329257	NYANAKAPU	-0.1266628
-3.30811	NYANAKE	-0.2838928
-4.329257	NYANAKIRI	-0.1266628
-4.329257	NYANALPP	-0.1266628
-4.477014	NYANAM
-3.019937	NYANAME	-0.2541407
-4.477014	NYANAN
-3.809582	NYANAPU	-0.1779231
-4.150996	NYANASA	-0.2360536
-3.809582	NYANASAM	-0.2317761
-4.329257	NYANASE	-0.1266628
-4.329257	NYANATEIN	-0.1266628
-4.329257	NYANATEINBIA	-0.1266628
-4.329257	NYANATEINBO	-0.1266628
-4.329257	NYANAYANAYE	-0.1266628
-4.329257	NYANKA	-0.1266628
-4.329257	NYE	-0.1266628
-4.329257	NYENAKE	-0.1266629
-3.705222	NYENGI	-0.2742745
-3.621144	NYENGIAPU	-0.4748142
-3.947228	NYENGIBO	-0.1552098
-4.477014	NYENGIMA
-4.329257	NYN	-0.1266628
-4.329257	NYNA	-0.1266628
-4.329257	NYNABOBIA	-0.1266629
-4.329257	NYNGI	-0.1266628
-4.329257	NYNJU	-0.1266628
-2.390265	NYO	-0.5424564
-4.329257	NYOKORUAPU	-0.1266628
-3.809582	NYOMA	-0.2317761
-4.329257	NYONGOR	-0.1266628
-3.437013	NYONGORO	-0.5510422
-4.329257	NYONOGORO	-0.1266628
-4.329257	NYONYO	-0.1266628
-4.329257	NYONYOMUME	-0.1266628
-4.329257	NYONYOMUN	-0.1266628
-4.329257	NYOS	-0.1266628
-4.329257	NYSANA	-0.1266628
-4.477014	OAP
-4.329257	OBBUDUKOAPU	-0.1266628
-4.150996	OBED	-0.2360536
-2.983237	OBI	-0.3965635
-4.150996	OBIABE	-0.1266628
-4.477014	OBIAP
-3.346976	OBIAPU	-0.3366372
-4.329257	OBIASI	-0.1266628
-4.477014	OBIB
-4.329257	OBIGWO	-0.1266628
-4.329257	OBIKA	-0.1266628
-4.329257	OBIKIRI	-0.1266629
-4.329257	OBIMASAM	-0.1266628
-4.150996	OBIME	-0.1266628
-3.705222	OBIRI	-0.3286861
-3.947228	OBIRIMA	-0.1964486
-4.329257	OBIS	-0.1266628
-4.150996	OBISAM	-0.2360535
-3.947228	OBO	-0.1779231
-3.705222	OBOKO	-0.2516453
-3.621144	OBOKU	-0.4078673
-4.329257	OBOKUBIA	-0.1266629
-3.947228	OBOLO	-0.1964486
-4.329257	OBOLOME	-0.1266628
-3.621144	OBORI	-0.5743753
-4.150996	OBORIAPU	-0.2360535
-2.697259	OBU	-0.2237967
-4.329257	OBUBDUKOAPU	-0.1266628
-4.329257	OBUDAPU	-0.1266628
-4.329257	OBUDIUKOPU	-0.1266628
-4.329257	OBUDUJOAPU	-0.1266628
-3.621144	OBUDUKO	-0.1552098
-4.329257	OBUDUKOABU	-0.1266628
-4.329257	OBUDUKOAP	-0.1266628
-2.715868	OBUDUKOAPU	-0.7858913
-4.150996	OBUDUKOAPUMA	-0.1266628
-3.346976	OBUDUKOBO	-0.5888308
-4.329257	OBUDUKOBOSO	-0.1266628
-4.329257	OBUDUKOPP	-0.1266628
-3.947228	OBUDUKOPU	-0.1964486
-4.329257	OBUDUKOSAPU	-0.1266628
-4.329257	OBUDUKUKOAPU	-0.1266628
-4.329257	OBUJI	-0.1266628
-3.705222	OBUJU	-0.1657108
-4.329257	OBUKARAKARAMA	-0.1266628
-3.947228	OBUKO	-0.1266628
-4.329257	OBUKUKO	-0.1266628
-4.329257	OBUKUKOAPU	-0.1266628
-4.329257	OBUKULUM	-0.1266628
-4.329257	OBUKULUMA	-0.1266628
-4.329257	OBUKULUMABU	-0.1266628
-3.947228	OBUKULUMAPU	-0.1266628
-4.329257	OBUMA	-0.1266628
-4.150996	OBUO	-0.1266628
-4.329257	OBUOBI	-0.1266629
-4.329257	OBUPAKA	-0.1266628
-4.329257	OBURJU	-0.1266628
-4.477014	OCHIN
-3.550734	OCHO	-0.2271996
-4.329257	OCHOBO	-0.1266628
-4.477014	OCHOKA
-4.477014	OCHOME
-4.150996	OCHU	-0.1964486
-4.329257	OCHUO	-0.1266628
-4.329257	ODELE	-0.1266628
-4.329257	ODERIBIA	-0.1266629
-4.329257	ODIEARIBO	-0.1266628
-4.329257	ODIEBO	-0.1266628
-4.329257	ODIKIME	-0.1266628
-3.947228	ODO	-0.2317761
-3.809582	ODOBOKO	-0.2607873
-4.150996	ODU	-0.2360536
-4.329257	OEI	-0.1266628
-4.329257	OFINBIA	-0.1266628
-3.809582	OFIRI	-0.2317761
-4.150996	OFOINBIA	-0.2360536
-4.329257	OFONGUMA	-0.1266628
-4.477014	OFONI
-4.477014	OFOPEKELEPEPEAP
-4.477014	OFOR
-3.809582	OFORI	-0.1671755
-4.329257	OFORIBO	-0.1266628
-3.621144	OFORIKA	-0.1857661
-4.477014	OFORIKABO
-4.329257	OFORIS	-0.1266628
-4.329257	OGB	-0.1266628
-4.329257	OGBIKI	-0.1266628
-4.329257	OGBKU	-0.1266628
-2.706464	OGBO	-0.3231761
-4.329257	OGBOIN	-0.1266628
-4.329257	OGBOKIA	-0.1266628
-3.809582	OGBOKIAYE	-0.3286861
-3.346976	OGBOKU	-0.1848333
-4.329257	OGBOLOMAYE	-0.1266628
-4.329257	OGBONJU	-0.1266628
-4.329257	OGBORIME	-0.1266628
-4.329257	OGBOSO	-0.1266628
-4.329257	OGBURUGBU	-0.1266628
-4.329257	OGHONO	-0.1266629
-4.329257	OGNO	-0.1266628
-4.329257	OGNOWARI	-0.1266628
-2.706464	OGONO	-0.2958407
-3.809582	OGONOJU	-0.398284
-4.150996	OGONOWARI	-0.1266628
-4.329257	OGOSTOS	-0.1266628
-4.150996	OGU	-0.1266628
-4.329257	OGWOKE	-0.1266629
-4.329257	OHA	-0.1266628
-4.329257	OIRA	-0.1266628
-4.150996	OJONGO	-0.1266628
-4.329257	OJONGOMA	-0.1266628
-3.019937	OJU	-0.4034718
-4.329257	OJUAPURA	-0.1266628
-3.437013	OJUMINI	-0.5096495
-4.329257	OJUO	-0.1266628
-4.329257	OKE	-0.1266628
-4.329257	OKEIN	-0.1266628
-4.329257	OKEINBIA	-0.1266628
-2.745369	OKI	-0.3366808
-4.329257	OKIAME	-0.1266629
-4.329257	OKIAN	-0.1266628
-4.329257	OKIBBO	-0.1266628
-3.346976	OKIBIA	-0.3471096
-3.128089	OKIBO	-0.2963216
-4.329257	OKIBOARI	-0.1266628
-3.809582	OKIBOBIA	-0.1266628
-4.329257	OKIBOME	-0.1266628
-4.150996	OKIEKE	-0.1266628
-3.809582	OKIKA	-0.1671756
-3.947228	OKIKE	-0.1964486
-4.150996	OKIKI	-0.2360535
-4.329257	OKIKIME	-0.1266628
-3.809582	OKIMA	-0.1266628
-3.272438	OKIME	-0.3157785
-3.947228	OKIMUM	-0.1266628
-3.060026	OKIMUN	-0.2587382
-4.329257	OKIOBO	-0.1266628
-4.329257	OKISA	-0.1266628
-3.809582	OKISAM	-0.1779231
-4.329257	OKISAPU	-0.1266628
-4.329257	OKISIN	-0.1266629
-4.150996	OKISO	-0.1266628
-4.329257	OKIUMA	-0.1266628
-4.477014	OKIYE
-4.150996	OKMA	-0.1266628
-2.888732	OKO	-0.3673001
-3.437013	OKOAPU	-0.457082
-4.150996	OKOBO	-0.2360536
-4.150996	OKOKE	-0.1266628
-3.947228	OKOKO	-0.2086195
-4.329257	OKOKU	-0.1266628
-3.30811	OKOLAGIJI	-0.2667476
-4.150996	OKOLAGIJIMA	-0.2360536
-4.329257	OKOLAIJI	-0.1266628
-4.329257	OKOLO	-0.1266628
-3.621144	OKOM	-0.2729571
-4.329257	OKOMBOARI	-0.1266628
-4.477014	OKOMBOME
-4.329257	OKOME	-0.1266628
-4.329257	OKORO	-0.1266628
-4.150996	OKOROBIA	-0.1266628
-4.329257	OKOROME	-0.1266628
-4.477014	OKORONA
-4.329257	OKORONAMAMA	-0.1266628
-4.329257	OKOSE	-0.1266628
-4.329257	OKOSIME	-0.1266628
-4.150996	OKPOKPO	-0.2360536
-4.329257	OKPOKPOMA	-0.1266628
-4.329257	OKPONGA	-0.1266628
-4.329257	OKSWEIN	-0.1266628
-2.297582	OKU	-0.613781
-4.477014	OKUE
-3.705222	OKUKU	-0.2086195
-4.150996	OKUM	-0.1266628
-2.111543	OKUMA	-0.4529065
-4.329257	OKUMAS	-0.1266628
-4.329257	OKUME	-0.1266628
-4.150996	OKUMI	-0.1266628
-4.150996	OKUMUN	-0.1266628
-4.329257	OKUNWEBGIBO	-0.1266628
-4.329257	OKUNWENGI	-0.1266628
-3.30811	OKUNWENGIAPU	-0.5069109
-3.621144	OKUNWENGIBO	-0.2607873
-4.150996	OKURNA	-0.1266628
-4.477014	OKUU
-4.329257	OKWEBIN	-0.1266628
-2.607107	OKWEIN	-0.4366974
-4.150996	OKWEINA	-0.1266628
-3.947228	OKWEINBIA	-0.1266628
-4.329257	OKWEINIMAAMUN	-0.1266628
-4.150996	OKWEINKA	-0.1266628
-3.947228	OKWEINKE	-0.1266628
-3.208838	OKWEINMA	-0.1649836
-4.150996	OKWEINMAME	-0.1266628
-4.329257	OKWEINMANMUABE	-0.1266628
-3.550734	OKWEINME	-0.2829286
-4.150996	OKWEM	-0.2360536
-3.947228	OKWEN	-0.2733453
-4.329257	OKWENME	-0.1266628
-4.150996	OKWIN	-0.1266628
-4.329257	OLIKO	-0.1266628
-4.329257	OLIV	-0.1266628
-3.947228	OLIVS	-0.2118599
-3.153373	OLO	-0.276436
-4.329257	OLOBIA	-0.1266628
-4.329257	OLOKE	-0.1266628
-4.329257	OLOKKO	-0.1266628
-2.629898	OLOKO	-0.6193539
-4.150996	OLOKODIEAPU	-0.2360536
-3.705222	OLOKOMA	-0.1835838
-4.329257	OLOKOMI	-0.1266629
-3.180221	OLOKU	-0.3237323
-3.947228	OLOKUABE	-0.1266628
-4.329257	OLOKUARIBO	-0.1266628
-4.329257	OLOKUBIA	-0.1266629
-3.272438	OLOKUME	-0.2950834
-4.329257	OLOKUPAKUMABIA	-0.1266629
-4.150996	OLOKUTEINME	-0.2360536
-4.329257	OLOLAGIJI	-0.1266628
-3.621144	OLOLO	-0.3582511
-4.150996	OLOLOMA	-0.1266628
-3.809582	OLOME	-0.1552098
-3.490162	OLOMU	-0.1633324
-4.329257	OLOMUAYE	-0.1266628
-4.329257	OLOMUMA	-0.1266628
-3.809582	OLOMUSA	-0.1671756
-4.150996	OLOMUSAM	-0.1266628
-4.329257	OLOMUYE	-0.1266628
-4.329257	OLOSAM	-0.1266628
-4.329257	OLOUKU	-0.1266628
-4.329257	OLUDUKOAPU	-0.1266628
-3.550734	OLULU	-0.2607873
-4.150996	OMBI	-0.1266628
-4.329257	OMBIKE	-0.1266628
-4.329257	OMGBO	-0.1266628
-4.329257	OMGBOBO	-0.1266628
-4.150996	OMI	-0.2360535
-4.477014	OMIE
-4.329257	OMIME	-0.1266628
-4.150996	OMIMI	-0.2360535
-4.329257	OMIN	-0.1266628
-3.621144	OMINA	-0.1760471
-2.381373	OMINE	-0.4127067
-2.607107	OMINEA	-0.3268962
-4.150996	OMINEABU	-0.1266628
-4.329257	OMINEAYE	-0.1266628
-4.329257	OMINEMGBA	-0.1266628
-4.329257	OMINIE	-0.1266628
